tree
version=v4
num_class=1
num_tree_per_iteration=1
label_index=0
max_feature_idx=5
objective=lambdarank
feature_names=Column_0 Column_1 Column_2 Column_3 Column_4 Column_5
feature_infos=[0:14] [1:23] [0:5] [0:17] [0:1] [3:30]
tree_sizes=3410 3396 3420 3430 3413 3407 3435 3454 3415 3396 3449 3434 3417 3411 3374 3425 3406 3375 3384 3364 3447 3384 3425 3410 3414 3418 3442 3428 3393 3387 3399 3428 3409 3402 3441 3416 3402 3409 3435 3418 3415 3423 3429 3386 3411 3365 3383 3456 3410 3417 3417 3423 3411 3420 3393 3434 3427 3398 3414 3425 3421 3421 3393 3418 3403 3424 3432 3426 3427 3386 3432 3415 3408 3367 3436 3402 3389 3393 3398 3387 3420 3366 3402 3401 3417 3454 3392 3400 3440 3450 3446 3412 3412 3393 3417 3415 3382 3383 3391 3375 3423 3415 3415 3405 3430 3413 3391 3421 3409 3382 3424 3433 3422 3413 3383 3404 3411 3413 3401 3401 3444 3430 3396 3405 3389 3438 3431 3433 3438 3399 3449 3425 3442 3409 3436 3410 3417 3404 3415 3419 3421 3442 3420 3366 3408 3420 3444 3411 3435 3393 3442 3451 3430 3397 3430 3424 3412 3415 3381 3406 3418 3440 3413 3417 3410 3416 3422 3427 3424 3425 3409 3434 3430 3394 3406 3401 3421 3438 3413 3413 3442 3416 3423 3403 3409 3424 3417 3418 3390 3374 3398 3419 3393 3412 3409 3383 3402 3438 3442 3419

Tree=0
num_leaves=31
num_cat=0
split_feature=3 2 5 2 5 0 5 3 0 5 2 0 5 5 5 3 0 0 3 0 4 3 5 5 0 3 3 2 5 5
split_gain=14.8793 9.17135 12.3267 6.79829 5.51383 4.62697 4.44255 4.6749 4.41503 3.69914 3.11795 2.93908 2.59932 2.44314 5.0436 5.45696 3.59713 4.05037 2.83897 3.54993 2.97565 3.14043 7.55872 4.18945 2.60572 2.41712 2.45131 2.31973 3.03128 3.63737
threshold=1.0000000180025095e-35 1.0000000180025095e-35 20.500000000000004 2.5000000000000004 13.500000000000002 8.5000000000000018 14.500000000000002 6.5000000000000009 7.5000000000000009 8.5000000000000018 2.5000000000000004 5.5000000000000009 25.500000000000004 19.500000000000004 20.500000000000004 1.5000000000000002 4.5000000000000009 5.5000000000000009 2.5000000000000004 3.5000000000000004 1.0000000180025095e-35 6.5000000000000009 18.500000000000004 17.500000000000004 3.5000000000000004 1.5000000000000002 2.5000000000000004 3.5000000000000004 17.500000000000004 13.500000000000002
decision_type=2 2 2 2 2 2 2 2 2 2 2 2 2 2 2 2 2 2 2 2 2 2 2 2 2 2 2 2 2 2
left_child=1 2 -1 6 9 11 7 -2 27 -3 -6 -4 13 18 25 16 -16 -18 19 -8 21 22 23 24 -20 -15 -27 28 29 -5
right_child=3 4 5 8 10 -7 12 -9 -10 -11 -12 -13 -14 14 15 -17 17 -19 20 -21 -22 -23 -24 -25 -26 26 -28 -29 -30 -31
leaf_value=0.0067451151236693485 0.011298832906713144 -0.046161322052191381 -0.099999999999999645 -0.00037352676348537779 -0.011876160223364709 -0.0040860945587027691 -0.015836633492134381 -0.03137744100107235 -0.10000000000000001 0.002078515833429195 -0.030547082662611216 -0.035926966483605154 -0.046006770300927063 0.036478358196480237 0.045401280448697234 0.019738856151468823 -0.074138406139345206 -0.011156598520378655 -0.0028774244601345012 0.0053311965395626774 0.025481226289663352 0.03449990841322708 -0.10000000000000001 0.020628353712096106 -0.030839712649271673 -0.0203549137468086 0.030340911361565727 -0.059565946483379685 0.024962474298704906 -0.049211321731407132
leaf_weight=211.43202632735483 321.28898775239941 4.1435843880753955 2.0087013484444531 9.5685099699767395 268.80057476169895 13.149470618925987 22.281368035939522 6.5478898632572955 1.6226904783397902 97.106660709599964 24.389092557248659 16.42266607133206 2.7625476750545195 20.139902843860913 2.4874940300360349 22.761367222410627 2.8248417363502112 26.500176965375431 13.87784164433833 178.31756239826791 5.3337589094880959 3.1381104169413438 2.5994651002110905 7.9232483161613336 20.846606007311493 4.5975603238912282 4.953631158452481 2.5672241090796879 4.9524516337551168 6.3378353917505583
leaf_count=3194 5060 103 41 166 3656 131 372 145 23 1675 330 180 23 155 19 190 40 253 200 2525 65 25 66 88 355 54 41 42 47 95
internal_value=0.000267705 -0.00524784 0.00239295 0.00533216 -0.00995531 -0.0267446 0.00628944 0.0104465 -0.0202418 0.000104339 -0.0134293 -0.0429098 0.00229693 0.00269105 0.0100697 0.00104698 -0.0123268 -0.0172236 0.00024623 0.00298 -0.00996227 -0.0138694 -0.017224 -0.0121787 -0.0196644 0.026654 0.00593798 -0.014717 -0.00919717 -0.0198328
internal_weight=1331.68 637.453 243.013 694.231 394.44 31.5808 669.182 327.837 25.0487 101.25 293.19 18.4314 341.345 338.583 84.265 54.5739 31.8125 29.325 254.318 200.599 53.719 48.3853 45.2472 42.6477 34.7244 29.6911 9.55119 23.426 20.8588 15.9063
internal_count=19359 9310 3546 10049 5764 352 9676 5205 373 1778 3986 221 4471 4448 752 502 312 293 3696 2897 799 734 709 643 555 250 95 350 308 261
is_linear=0
shrinkage=0.05


Tree=1
num_leaves=31
num_cat=0
split_feature=5 3 3 5 5 1 1 5 1 4 3 0 3 3 1 0 3 5 1 1 1 0 1 1 0 0 0 1 3 3
split_gain=363.096 269.52 31.9476 39.133 27.6246 24.584 20.398 16.2151 34.3119 16.0975 43.7503 14.6283 26.704 25.8907 21.6955 14.5867 12.666 11.416 11.0276 10.9819 22.1292 12.7918 10.5968 9.95158 12.594 16.2313 9.14102 8.58119 19.6593 7.80694
threshold=14.500000000000002 1.0000000180025095e-35 1.5000000000000002 17.500000000000004 20.500000000000004 11.500000000000002 11.500000000000002 8.5000000000000018 4.5000000000000009 1.0000000180025095e-35 2.5000000000000004 5.5000000000000009 2.5000000000000004 2.5000000000000004 16.500000000000004 9.5000000000000018 5.5000000000000009 19.500000000000004 11.500000000000002 12.500000000000002 13.500000000000002 6.5000000000000009 5.5000000000000009 14.500000000000002 7.5000000000000009 8.5000000000000018 1.5000000000000002 9.5000000000000018 6.5000000000000009 1.0000000180025095e-35
decision_type=2 2 2 2 2 2 2 2 2 2 2 2 2 2 2 2 2 2 2 2 2 2 2 2 2 2 2 2 2 2
left_child=1 18 4 6 17 7 9 26 16 27 -11 12 -5 14 15 19 -9 22 -1 -13 -21 -22 -2 29 -25 -26 -3 -4 -29 -19
right_child=2 5 3 11 -6 -7 -8 8 -10 10 -12 13 -14 -15 -16 -17 -18 23 -20 20 21 -23 -24 24 25 -27 -28 28 -30 -31
leaf_value=0.014470556433751182 0.093179286265640912 0.017136230499445165 0.027188918184712231 0.0063964261580944596 0.035941576710125232 0.011924317404382741 0.039564016123097762 -0.087839547316265254 -0.020906273827073357 0.041142931983558347 -0.078682338624531362 0.019000041649044001 -0.039264496236589563 0.027437486394406931 -0.10099938702965186 0.063781765874871041 -0.0087324036638222868 0.024952831451226738 -0.02266798311416366 -0.079962793899063134 -0.058664861410781657 0.0066461671816156172 0.018257596111760293 0.0086942590661605521 -0.10063114446127584 -0.010972644951693887 -0.011901937111100443 0.010261259236888094 -0.10178005621274343 0.00034065150472294001
leaf_weight=817.63468242017552 4.7370064835995427 37.459753585979342 86.778295903000981 56.00204590568319 218.58377450285479 59.650258038192987 83.518159541767091 26.322688687592745 1981.3866687030531 14.186785561032595 16.451396524906158 19.691786433570087 74.773954819655046 63.787471995688975 6.6543181987944982 6.6613458432257167 6.2641409882344297 63.188894861377776 20.488925249315798 13.630363774485884 9.5167785780504328 35.328862057998776 1279.8662961455993 27.680091790854931 7.6846931679174331 14.711571594700215 98.012494768947363 79.911104850005358 4.1168883740901938 65.740094511769712
leaf_count=3731 8 97 442 191 1228 113 321 86 4861 52 38 79 183 102 21 10 24 309 135 59 29 72 6102 89 57 69 239 483 13 116
internal_value=0.000674176 -0.010579 0.0158929 0.00567395 0.0193616 -0.0197382 0.0187882 -0.0206169 -0.0217432 0.0101747 -0.0231981 -0.00739063 -0.0197112 0.00298628 -0.0140625 -0.00724284 -0.0726328 0.0168855 0.0135627 -0.0132955 -0.024171 -0.00721361 0.0185339 0.00505599 -0.0138606 -0.0417366 -0.00387252 0.0161609 0.00477188 0.0124032
internal_weight=5300.42 3047.22 2253.2 571.01 1682.19 2209.1 284.963 2149.45 2013.97 201.444 30.6382 286.047 130.776 155.271 91.4835 84.8291 32.5868 1463.61 838.124 78.1678 58.476 44.8456 1284.6 179.005 50.0764 22.3963 135.472 170.806 84.028 128.929
internal_count=19359 9286 10073 2095 7978 5420 1349 5307 4971 1028 90 746 374 372 270 249 110 6750 3866 239 160 101 6110 640 215 126 336 938 496 425
is_linear=0
shrinkage=0.05


Tree=2
num_leaves=31
num_cat=0
split_feature=5 2 3 3 5 0 3 3 0 5 3 5 3 0 3 3 0 3 5 4 0 0 0 5 5 5 0 0 0 5
split_gain=445.437 107.482 92.8349 80.2719 19.1187 26.2454 18.4956 19.5917 16.8869 15.1906 14.8216 38.9956 17.8381 17.2799 15.196 14.3782 14.2652 14.9371 10.9192 10.551 8.26517 8.26394 12.1022 7.09156 6.68906 19.6655 11.1656 10.1091 6.43715 8.33967
threshold=14.500000000000002 1.0000000180025095e-35 1.0000000180025095e-35 1.0000000180025095e-35 20.500000000000004 4.5000000000000009 1.0000000180025095e-35 2.5000000000000004 1.5000000000000002 16.500000000000004 2.5000000000000004 15.500000000000002 3.5000000000000004 6.5000000000000009 6.5000000000000009 3.5000000000000004 6.5000000000000009 1.5000000000000002 18.500000000000004 1.0000000180025095e-35 2.5000000000000004 3.5000000000000004 1.5000000000000002 18.500000000000004 15.500000000000002 17.500000000000004 4.5000000000000009 7.5000000000000009 1.0000000180025095e-35 10.500000000000002
decision_type=2 2 2 2 2 2 2 2 2 2 2 2 2 2 2 2 2 2 2 2 2 2 2 2 2 2 2 2 2 2
left_child=2 3 -1 24 6 -6 21 9 -9 16 -5 12 -12 14 15 -13 17 -8 -11 -10 28 22 -3 -24 27 -26 -27 -2 29 -4
right_child=1 4 20 10 5 -7 7 8 19 18 11 13 -14 -15 -16 -17 -18 -19 -20 -21 -22 -23 23 -25 25 26 -28 -29 -30 -31
leaf_value=0.0077580241183215978 -0.018064928820114758 0.071874271570061044 -0.098337949970317043 -0.010306663646639506 0.031913096968302954 -0.017088130902034784 -0.0015910330014443691 -0.054624852731199686 0.018027187315353018 0.005985175911497176 -0.011823418685390609 0.020821552534087913 -0.10047777081516857 0.06002330173334687 0.079834891680838641 -0.028692590014121801 -0.047224528814938924 -0.029051245356031742 -0.013231278262287772 0.07304529746774556 0.032336552305053112 0.010299016699550309 -0.017450840991030388 -0.099727274146960587 -0.042248707255237307 -0.056677966430137929 -0.023007077722673529 -0.053053407761635168 0.02268332513364938 0.041219125690687947
leaf_weight=858.0630092965439 188.21064665913582 3.5870475042611352 2.5002752551808944 545.07015410158783 30.261087004095316 281.75129203358665 131.13038366241381 7.278319203760474 69.129043491906486 224.14668974839151 13.635353631339969 41.355440944433212 9.7178090487141144 24.05179043347016 7.2092001913115373 22.714863998116925 33.198808928951621 79.573371324688196 110.30108108301647 9.9709608922712487 812.61360196606256 486.88080790219828 27.948618682101372 2.8897624015808097 281.89601802453399 26.284949080087245 389.04576861881651 23.187873020768166 219.5223620145116 1.8719906751066444
leaf_count=3866 349 8 42 1617 47 776 469 27 310 657 69 168 78 42 17 147 129 244 336 30 4206 2611 197 27 643 81 945 49 1161 11
internal_value=0.000857135 -0.010907 0.0199226 -0.0200381 -0.00132281 -0.0123357 0.00157436 -0.00395507 0.0182564 -0.00727241 -0.00682021 0.00919168 -0.0487146 0.0233769 0.0110113 0.00326729 -0.0167614 -0.0119615 -0.000352423 0.0249625 0.0299929 0.00862506 -0.0150499 -0.0251607 -0.0296938 -0.032056 -0.025138 -0.0219027 0.0214868 -0.0385864
internal_weight=4965 3070.43 1894.57 1572.38 1498.05 312.012 1186.03 664.729 86.3783 578.35 663.755 118.684 23.3532 95.3313 71.2795 64.0703 243.903 210.704 334.448 79.1 1036.51 521.306 34.4254 30.8384 908.625 697.227 415.331 211.399 223.895 4.37227
internal_count=19359 10073 9286 4205 5868 823 5045 2202 367 1835 2138 521 147 374 332 315 842 713 993 340 5420 2843 232 224 2067 1669 1026 398 1214 53
is_linear=0
shrinkage=0.05


Tree=3
num_leaves=31
num_cat=0
split_feature=5 3 5 3 5 5 2 2 3 1 0 2 2 0 1 2 5 1 3 0 1 2 3 1 5 1 3 0 0 2
split_gain=232.464 272.794 71.4101 22.8044 60.8221 59.7325 59.9056 42.7518 24.2899 21.9266 21.7739 19.6365 19.1071 16.9788 28.3766 17.8391 16.2859 26.8726 28.8302 16.7857 15.2064 13.5389 12.9675 13.858 13.87 12.9433 12.8867 18.0186 13.7784 12.2975
threshold=13.500000000000002 1.0000000180025095e-35 18.500000000000004 1.0000000180025095e-35 16.500000000000004 14.500000000000002 1.0000000180025095e-35 1.0000000180025095e-35 1.5000000000000002 9.5000000000000018 3.5000000000000004 2.5000000000000004 1.0000000180025095e-35 7.5000000000000009 13.500000000000002 1.5000000000000002 8.5000000000000018 4.5000000000000009 3.5000000000000004 2.5000000000000004 12.500000000000002 1.0000000180025095e-35 2.5000000000000004 9.5000000000000018 12.500000000000002 5.5000000000000009 2.5000000000000004 5.5000000000000009 6.5000000000000009 1.0000000180025095e-35
decision_type=2 2 2 2 2 2 2 2 2 2 2 2 2 2 2 2 2 2 2 2 2 2 2 2 2 2 2 2 2 2
left_child=1 -1 3 5 20 7 -7 10 12 11 -2 25 -6 -11 15 -15 17 -3 19 -19 26 -22 -18 24 -24 -8 28 -28 -5 -26
right_child=2 16 -4 4 8 6 9 -9 -10 13 -12 -13 -14 14 -16 -17 22 18 -20 -21 21 -23 23 -25 29 -27 27 -29 -30 -31
leaf_value=-0.029544970124540888 0.011380260371434837 0.018835504360018851 0.023982975899339957 0.018188040742750506 0.0056470329686322002 0.039826137942666068 0.058652091790879247 0.01759867985440914 0.0016259030322218302 0.017909942977148888 -0.031023549122455432 0.062686950594000909 -0.027000072482025479 -0.018544446846711304 0.033642499899053324 -0.099616072827833746 0.0035417121584142572 0.020782222888249491 -0.10098889611878908 -0.03001464666978439 -0.002198974697390433 -0.068307415586666795 0.017279050720954772 0.041270132591656059 -0.036142711708742836 -0.036919217217076479 0.004802035531826873 -0.052122439830442929 -0.007499450975502169 0.0086708563442962905
leaf_weight=1083.2687015645206 38.265256263315678 50.562255518743768 690.45960670581553 487.53205291042104 54.511824716813862 237.21556644095108 3.8207932114601126 107.09029403375462 188.21709118317813 301.77767876489088 144.95725084561855 6.418236954137682 252.00130384135991 30.548880472779274 22.731777322478592 8.7229159474372846 688.86705672601238 22.426149789243937 11.385388170834629 59.179757902398705 27.869535931386054 10.725244540721176 228.77693246561103 45.189675722271204 25.318380381911993 48.669760419987142 161.12346856039949 15.214176291599868 58.462991596665233 38.721649335697293
leaf_count=2832 71 123 3211 1903 312 1312 4 609 622 1436 354 30 472 162 82 86 2651 63 47 103 85 74 882 110 144 388 684 88 278 141
internal_value=0.000579518 -0.0114631 0.0099501 0.00555768 0.00113521 0.0114017 0.0197166 -0.00749871 -0.0125123 0.00843102 -0.0221677 -0.0198682 -0.0211939 0.0130136 -0.0108171 -0.0365518 0.0052723 -0.0105022 -0.026454 -0.0160551 0.0100084 -0.0205701 0.00747753 0.0154988 0.0115216 -0.0299626 0.0116422 -0.000109332 0.0154375 -0.0090463
internal_weight=5150.03 2253.7 2896.34 2205.88 1255.66 950.218 659.906 290.313 494.73 422.69 183.223 58.9088 306.513 363.781 62.0036 39.2718 1170.43 143.554 92.9913 81.6059 760.927 38.5948 1026.87 338.007 292.817 52.4906 722.333 176.338 545.995 64.04
internal_count=19359 7096 12263 9052 4518 4534 3500 1034 1406 2188 425 422 784 1766 330 248 4264 336 213 166 3112 159 3928 1277 1167 392 2953 772 2181 285
is_linear=0
shrinkage=0.05


Tree=4
num_leaves=31
num_cat=0
split_feature=5 3 3 1 5 1 5 1 1 4 5 0 1 3 1 5 5 0 3 1 4 5 0 5 0 4 3 1 4 3
split_gain=102.8 50.0731 25.5865 24.9646 13.2467 11.297 12.8849 17.1556 10.0042 9.40657 10.4616 14.3735 10.5831 9.36215 16.6282 13.5702 8.16036 7.74707 7.1796 7.17249 7.13495 7.09594 16.7818 9.46459 8.08487 16.4268 14.5305 8.55868 7.61719 6.63192
threshold=13.500000000000002 1.5000000000000002 1.5000000000000002 11.500000000000002 15.500000000000002 2.5000000000000004 7.5000000000000009 4.5000000000000009 19.500000000000004 1.0000000180025095e-35 19.500000000000004 7.5000000000000009 12.500000000000002 2.5000000000000004 6.5000000000000009 14.500000000000002 17.500000000000004 11.500000000000002 1.0000000180025095e-35 7.5000000000000009 1.0000000180025095e-35 10.500000000000002 2.5000000000000004 6.5000000000000009 3.5000000000000004 1.0000000180025095e-35 2.5000000000000004 7.5000000000000009 1.0000000180025095e-35 5.5000000000000009
decision_type=2 2 2 2 2 2 2 2 2 2 2 2 2 2 2 2 2 2 2 2 2 2 2 2 2 2 2 2 2 2
left_child=1 5 8 4 13 -1 7 -7 17 10 11 29 -12 15 -15 -4 -13 -2 20 -17 -8 23 -23 -3 25 26 -24 -26 -25 -5
right_child=2 21 3 9 -6 6 18 -9 -10 -11 12 16 -14 14 -16 19 -18 -19 -20 -21 -22 22 24 28 27 -27 -28 -29 -30 -31
leaf_value=0.095632734417078549 -0.0062183628751984917 -0.049205754747037443 -0.028468374536698933 0.0073163368433278647 0.0079611916371077601 0.016711500257409296 0.022317360460056019 -0.10049702978182487 0.035930880457471746 0.039257092373414709 -0.028359979049779084 -0.018456321447130115 0.032717345703590243 -0.099450455607255961 0.0058382076654736178 -0.049193372328121307 -0.10094468246615507 -0.057621473024444973 0.015177396256680839 0.0092150407126607489 0.044129244996115681 0.017312295587712381 0.011073716247974869 0.0070855437143986762 0.015720379234106883 -0.10075249288980653 -0.02595660045499168 -0.0069003811859338626 0.036061991092123574 0.054714072199868104
leaf_weight=4.8608533516526213 2602.0504303582711 6.8402875410392872 103.13424730859697 141.03255720995367 163.47728337161243 7.8005083114840073 404.68294869316742 5.2052379436790943 14.057120911777018 37.826460076030344 7.8324033850803962 10.472834249958394 75.065239371731877 3.9028294757008544 95.705336386337876 5.9181286245584479 4.2008722750470033 7.3506207801401606 410.96323775872588 46.981736639514565 41.320736762136221 88.074986761901528 40.079587606713176 190.76776803907705 54.756236426532269 5.6389942653477183 78.138983600307256 176.92541364300996 25.740298589225858 7.7876527439802876
leaf_count=4 9474 24 266 496 766 39 2583 44 39 78 38 40 203 34 508 35 34 38 1719 201 197 393 175 716 187 35 260 642 78 13
internal_value=0.00108001 0.0117525 -0.00386612 0.0046026 -0.00315465 0.0196201 0.0191954 -0.0301984 -0.00613654 0.0160418 0.0124777 0.00514142 0.0269466 -0.010263 0.00171281 -0.017908 -0.0420716 -0.00636316 0.0199451 0.00268065 0.0243382 0.00143267 -0.00222675 0.00870102 -0.00706701 -0.0173791 -0.0134022 -0.00155413 0.0105305 0.00979663
internal_weight=4868.59 1541.8 3326.8 703.338 419.12 874.834 869.973 13.0057 2623.46 284.218 246.392 163.494 82.8976 255.642 99.6082 156.034 14.6737 2609.4 856.967 52.8999 446.004 666.963 443.614 223.348 355.539 123.858 118.219 231.682 216.508 148.82
internal_count=19359 7096 12263 2712 1810 4586 4582 83 9551 902 824 583 241 1044 542 502 74 9512 4499 236 2780 2510 1692 818 1299 470 435 829 794 509
is_linear=0
shrinkage=0.05


Tree=5
num_leaves=31
num_cat=0
split_feature=5 3 3 5 5 1 5 5 3 1 1 3 3 2 2 5 5 5 1 1 4 1 1 3 1 2 2 1 5 1
split_gain=95.3876 69.046 25.0416 21.434 17.3608 12.4275 12.6085 11.8223 14.4161 18.1726 13.9166 23.8098 16.1888 10.9816 10.2084 19.2738 10.479 9.77217 20.8724 9.57296 8.6538 16.5796 18.8706 8.60373 8.31831 7.76755 18.5966 6.82831 21.5806 8.57849
threshold=13.500000000000002 1.0000000180025095e-35 1.5000000000000002 8.5000000000000018 9.5000000000000018 7.5000000000000009 9.5000000000000018 10.500000000000002 3.5000000000000004 5.5000000000000009 6.5000000000000009 5.5000000000000009 3.5000000000000004 1.0000000180025095e-35 1.0000000180025095e-35 12.500000000000002 10.500000000000002 25.500000000000004 18.500000000000004 7.5000000000000009 1.0000000180025095e-35 10.500000000000002 6.5000000000000009 7.5000000000000009 4.5000000000000009 1.5000000000000002 2.5000000000000004 7.5000000000000009 11.500000000000002 9.5000000000000018
decision_type=2 2 2 2 2 2 2 2 2 2 2 2 2 2 2 2 2 2 2 2 2 2 2 2 2 2 2 2 2 2
left_child=1 4 3 24 -1 7 -7 10 9 -9 11 -4 -12 -14 15 16 -5 23 -19 -17 -6 22 -22 -2 -3 -11 -27 -16 -29 -30
right_child=17 2 5 14 20 6 -8 8 -10 25 12 -13 13 -15 27 19 -18 18 -20 -21 21 -23 -24 -25 -26 26 -28 28 29 -31
leaf_value=0.029154864750362233 0.0060868188505786777 -0.016175178970924017 -0.022681918703637213 -0.044377244342050606 0.0056963751019926913 0.052276702958330284 -0.0023415986152018112 -0.100303554164844 -0.0061621897987414378 -0.022595165889770917 0.027878383309890266 0.027673969510240454 -0.065498718747713319 0.015441321423357818 -0.010486640393171629 -0.10082065950714758 -0.015819904135751885 0.01389828618380534 -0.10127749277756848 -0.046249607030414669 0.034089366531642282 0.045820983632373406 -0.034458154799074367 0.069999953627895115 0.038695436765874384 -0.10063737459694773 0.022929253827121718 -0.057142133087018467 -0.026073621903054039 -0.0030785226381846564
leaf_weight=72.192701591411605 2894.0884534908691 10.617118284106256 129.74213478202 42.017241028137505 435.46663344511762 10.950737342238424 301.08126264903694 9.2005363451316935 86.501269988948479 103.67941663786769 50.12208192050457 28.659928075969219 9.2192709185183066 7.6828628722578278 161.19031481863931 9.2418408691883069 136.42488852143288 9.7502475623041409 6.5937818605452767 61.613131083548069 12.328958272933958 10.521659148856996 54.083351649343967 5.2751797232776871 19.766321731731296 9.7511682435870153 4.4273630566894999 40.100965674966574 95.106660764664412 70.714730746112764
leaf_count=301 12299 25 465 118 2286 15 1087 58 249 306 116 101 34 18 457 36 304 49 30 165 22 16 144 12 69 47 16 129 264 149
internal_value=0.000232358 -0.00822973 -0.0142643 -0.0214757 0.00619941 -0.00805368 -0.000424774 -0.0134763 -0.0219065 -0.0326253 -0.00548987 -0.013571 0.0136086 -0.0287074 -0.0234965 -0.0313048 -0.0225442 0.00598577 -0.0325679 -0.0533675 0.0029652 -0.012494 -0.0217328 0.0062031 0.0195216 -0.027342 -0.0620527 -0.0181941 -0.0242272 -0.0162673
internal_weight=4898.11 1982.4 1397.81 646.793 584.593 751.018 312.032 438.986 213.56 127.058 225.426 158.402 67.0242 16.9021 616.41 249.297 178.442 2915.71 16.344 70.855 512.401 76.934 66.4123 2899.36 30.3834 117.858 14.1785 367.113 205.922 165.821
internal_count=19387 6997 4228 1716 2769 2512 1102 1410 676 427 734 566 168 52 1622 623 422 12390 79 201 2468 182 166 12311 94 369 63 999 542 413
is_linear=0
shrinkage=0.05


Tree=6
num_leaves=31
num_cat=0
split_feature=5 0 3 5 3 5 0 3 5 1 1 0 5 5 2 5 0 3 0 0 5 1 0 0 2 1 2 3 0 3
split_gain=31.5328 12.02 12.1965 23.3628 20.7655 17.3496 9.30035 8.43222 11.3545 13.019 9.74568 7.78305 7.54452 7.40855 23.3011 18.297 27.8758 17.5486 16.2395 13.7361 20.8056 10.9647 13.5181 15.7377 13.0255 20.7193 12.9271 10.4437 10.0152 9.25254
threshold=13.500000000000002 4.5000000000000009 1.0000000180025095e-35 9.5000000000000018 1.5000000000000002 9.5000000000000018 3.5000000000000004 1.5000000000000002 9.5000000000000018 5.5000000000000009 6.5000000000000009 5.5000000000000009 12.500000000000002 18.500000000000004 1.0000000180025095e-35 20.500000000000004 9.5000000000000018 2.5000000000000004 5.5000000000000009 6.5000000000000009 17.500000000000004 12.500000000000002 3.5000000000000004 6.5000000000000009 1.5000000000000002 14.500000000000002 1.5000000000000002 1.0000000180025095e-35 8.5000000000000018 1.0000000180025095e-35
decision_type=2 2 2 2 2 2 2 2 2 2 2 2 2 2 2 2 2 2 2 2 2 2 2 2 2 2 2 2 2 2
left_child=1 6 3 -3 -4 -6 -1 8 9 -8 -9 -7 -12 19 -15 16 17 21 -17 -2 28 22 -16 26 -23 -26 -24 -20 -21 -28
right_child=13 2 4 -5 5 11 7 10 -10 -11 12 -13 -14 14 15 18 -18 -19 27 20 -22 24 23 -25 25 -27 29 -29 -30 -31
leaf_value=0.006264753716658091 -0.0031220303090660384 -0.070575106069941607 0.031696734253336398 0.0074934872126811401 0.06728747552372287 -0.013642327042421737 -0.10019520072470622 0.030419477144402227 -0.0045283403999696386 -0.021285569881240946 -0.0088053245968047669 0.015600895938316659 0.018797806065658201 0.003663047165623907 -0.099171455297727043 0.023248324990951572 -0.10036673378573054 0.036773438523141494 -0.00037649995514703175 0.0091034360941522254 -0.010327202165555625 -0.022767619407801858 -0.0053167866529529205 -0.061707491630484793 -0.015326012763199554 0.041534357213698074 -0.073371057367883727 -0.026948065377663658 0.033004699104960719 -0.012736312819057764
leaf_weight=743.42716996907257 1844.8556250464171 9.9750462509691697 152.72097822837532 243.98195892060176 9.5923940502107126 63.370634001679718 6.3133664913475505 31.827488462906331 193.68600179674104 30.378549757413566 84.469475930556655 35.49874272942543 35.016391782090068 348.76119229150936 7.0158496152143917 50.5526228165254 10.504913836717604 14.185639626812188 112.94938492728397 315.6536990404129 138.47122863214463 116.84023564169183 62.596985310316086 26.19382182508707 46.120451498311013 24.548919318476692 14.706891603767874 54.979586808476597 50.895759680774063 10.995311200618742
leaf_count=3114 7036 36 573 1117 20 292 30 110 1039 89 312 123 142 1340 62 130 57 55 464 1381 508 383 147 96 138 57 57 234 216 29
internal_value=0.000251823 0.00590366 0.0122293 0.00442707 0.0198156 0.00308622 0.00300746 -0.00333684 -0.00935971 -0.0348631 0.0058331 -0.00314264 -0.000715983 -0.0025999 -0.00645479 -0.0128452 -0.0202096 -0.0176043 -0.00159673 -0.00112192 0.00618452 -0.0201005 -0.0318005 -0.0276722 -0.0125188 0.00442598 -0.0175756 -0.00907597 0.0124222 -0.0474317
internal_weight=4891.09 1640.26 515.14 253.957 261.183 108.462 1125.12 381.691 230.378 36.6919 151.313 98.8694 119.486 3250.83 900.952 552.191 333.709 323.204 218.482 2349.88 505.021 309.018 121.509 114.493 187.51 70.6694 88.2992 167.929 366.549 25.7022
internal_count=19387 6997 2161 1153 1008 435 4836 1722 1158 119 564 415 454 12390 3249 1909 1081 1024 828 9141 2105 969 391 329 578 195 233 698 1597 86
is_linear=0
shrinkage=0.05


Tree=7
num_leaves=31
num_cat=0
split_feature=5 2 0 3 0 3 0 5 3 5 4 3 5 0 5 0 0 3 5 0 0 5 5 5 3 0 2 3 3 2
split_gain=4.48769 12.8417 22.0512 15.7676 11.5717 7.99992 10.0024 24.8552 7.34451 7.10515 8.96059 7.53995 7.08567 9.13997 6.07314 5.63182 20.7627 5.44683 5.43138 11.9137 5.0257 5.53855 6.45309 8.69694 15.4156 14.4866 12.6473 5.82536 10.4025 5.62496
threshold=16.500000000000004 1.0000000180025095e-35 3.5000000000000004 1.0000000180025095e-35 2.5000000000000004 1.5000000000000002 8.5000000000000018 19.500000000000004 2.5000000000000004 19.500000000000004 1.0000000180025095e-35 1.0000000180025095e-35 17.500000000000004 5.5000000000000009 21.500000000000004 6.5000000000000009 4.5000000000000009 1.5000000000000002 18.500000000000004 8.5000000000000018 7.5000000000000009 11.500000000000002 13.500000000000002 14.500000000000002 1.0000000180025095e-35 6.5000000000000009 1.0000000180025095e-35 6.5000000000000009 4.5000000000000009 2.5000000000000004
decision_type=2 2 2 2 2 2 2 2 2 2 2 2 2 2 2 2 2 2 2 2 2 2 2 2 2 2 2 2 2 2
left_child=20 2 17 -3 -5 6 -6 -8 9 11 -11 18 13 -7 -12 16 -10 -2 19 -4 21 29 -23 24 26 27 -24 28 -25 -1
right_child=1 3 8 4 5 12 7 -9 15 10 14 -13 -14 -15 -16 -17 -18 -19 -20 -21 -22 22 23 25 -26 -27 -28 -29 -30 -31
leaf_value=0.0034537158507379102 0.055705244014862626 0.0012907419748394591 -0.0040629297675604205 -0.051332092883762982 0.026715680917465047 -0.02584880267762989 0.039085167153098357 -0.098538080176103909 -0.099376564401443879 0.0038141525890648242 -0.011198770686658602 -0.019545291098656662 0.016636638987042488 0.012705354936345562 -0.066897129362307087 0.040615883609415634 0.017749382192888581 0.017210344150279555 0.0090309880536749015 -0.047145729480329558 0.0090367568727354065 -0.0053986249237138921 0.029351515825328002 -0.00026326009975826585 -0.0019075892491236411 -0.01911409351238845 0.0046974685299768244 0.043067967262232561 -0.050611515531039042 -0.01658478125562662
leaf_weight=812.53979810024612 17.110086434520781 518.59048601123504 124.83890600223094 6.4383231438696376 169.74537034891546 28.615245915949345 7.9128837473690492 5.6043918910436332 4.3259823713451615 204.24351871060207 14.696067398414018 144.65875494852662 94.421468429034576 33.216891948133707 7.3376101981848469 14.052599392831324 30.184409257955849 19.849782356061041 53.807516416534781 18.413293071091175 133.36454060277902 916.09378274623305 92.851409506984055 762.83755487762392 316.23494758456945 120.86654257215559 118.28981167310849 7.5934152947738758 10.398957885336129 36.598489662166685
leaf_count=3013 58 2219 497 41 827 103 30 66 51 750 48 645 360 72 34 31 115 73 224 61 524 3713 414 2980 1110 456 584 19 79 190
internal_value=0.00055479 0.00280761 -0.00248173 0.00680588 0.0150731 0.0163324 0.0234194 -0.0179747 -0.00473045 -0.00632612 0.000546113 -0.0108767 0.00802041 -0.00513709 -0.0297473 0.0139327 0.00306729 0.0350311 -0.00451328 -0.00960069 -0.000472934 -0.00086997 -0.00212277 -2.28171e-05 0.00507749 -0.00300584 0.0155393 -0.000512402 -0.000940374 0.00259004
internal_weight=4845.73 1518.06 653.519 864.545 345.955 339.516 183.263 13.5173 616.559 567.996 226.277 341.718 156.254 61.8321 22.0337 48.563 34.5104 36.9599 197.06 143.252 3327.67 3194.3 2345.17 1429.07 527.376 901.696 211.141 780.83 773.237 849.138
internal_count=19387 6305 2587 3718 1499 1458 923 96 2456 2259 832 1427 535 175 82 197 166 131 782 558 13082 12558 9355 5642 2108 3534 998 3078 3059 3203
is_linear=0
shrinkage=0.05


Tree=8
num_leaves=31
num_cat=0
split_feature=3 5 0 1 1 1 1 1 0 5 1 0 5 5 0 2 1 0 0 5 0 5 1 1 0 5 1 2 5 5
split_gain=7.06591 6.56896 7.82393 8.69587 5.50874 6.98541 5.35033 4.15038 15.8848 7.78782 7.53524 9.17722 9.11833 8.06235 24.8108 17.224 8.01097 7.01457 9.61864 10.1967 6.25497 5.98135 9.35056 6.13881 5.78406 6.89135 5.69485 26.0682 4.7917 4.55555
threshold=1.0000000180025095e-35 9.5000000000000018 2.5000000000000004 7.5000000000000009 18.500000000000004 17.500000000000004 4.5000000000000009 15.500000000000002 6.5000000000000009 23.500000000000004 12.500000000000002 7.5000000000000009 16.500000000000004 18.500000000000004 5.5000000000000009 1.5000000000000002 13.500000000000002 9.5000000000000018 8.5000000000000018 23.500000000000004 6.5000000000000009 19.500000000000004 11.500000000000002 11.500000000000002 4.5000000000000009 20.500000000000004 17.500000000000004 1.0000000180025095e-35 19.500000000000004 11.500000000000002
decision_type=2 2 2 2 2 2 2 2 2 2 2 2 2 2 2 2 2 2 2 2 2 2 2 2 2 2 2 2 2 2
left_child=1 2 -1 -4 5 -2 -3 10 9 -9 11 13 16 29 15 -15 -12 18 28 -20 21 23 -23 -16 25 -14 27 -19 -10 -8
right_child=4 6 3 -5 -6 -7 7 8 17 -11 12 -13 24 14 20 -17 -18 26 19 -21 -22 22 -24 -25 -26 -27 -28 -29 -30 -31
leaf_value=0.028058280434429712 0.0021946678632062833 -0.052067289283968671 -0.0092070502564907206 0.046185344171459926 -0.044960001953660907 0.049892377265790405 -0.0079279015651063343 -0.099755557962429631 -0.040693308179629822 -0.00671824426280224 0.027971509048483025 -0.018117929630336298 -0.00071126802309266356 0.017126886469700016 -0.099895784807603735 -0.061472430869411378 -0.0097405881256516034 -0.09960384608562356 -0.022824889976789133 -0.10028672918266464 -0.077447572149158039 0.02962736714609264 -0.055246479635618677 -0.029645057663360792 -0.000362685700325163 0.064305717509839808 0.030420221859364834 0.027020956477779474 0.0078908997267371044 -3.2553665384143296e-05
leaf_weight=40.075271544978023 2571.429860134609 5.3592948615550986 47.331882782280445 8.3325189054012281 6.171097286976873 7.6990185691975048 216.98835903033614 7.105645500123499 6.0766064748167983 3.2910385709255934 61.601901254616678 97.036684692837298 8.630048477090897 45.864168826024979 5.1966604529880005 8.2191135333850962 18.255018826574087 5.5826250072568682 18.169937148690227 5.544836211949586 11.976499673910437 6.9719753563404065 6.0707503501325846 7.7435150062665343 388.45208628871478 7.7226661909371606 19.297219264321029 14.947175974026321 30.79073600564152 1156.1834356747568
leaf_count=101 9995 24 179 21 31 24 855 47 24 12 186 436 48 152 32 64 62 39 78 34 87 24 31 33 1474 12 60 56 147 5019
internal_value=0.00043918 -0.00160379 0.0112127 -0.000915249 0.00222415 0.00233705 -0.00217105 -0.00204712 -0.0114722 -0.0703049 -0.00153691 -0.00322663 0.00390968 -0.00224042 -0.0165662 0.00518204 0.0193507 -0.00538048 -0.0160957 -0.0409365 -0.0475523 -0.0337725 -0.00987725 -0.0578571 0.000863595 0.0299934 0.0109188 -0.00741186 -0.000116922 -0.00128018
internal_weight=4844.12 2258.82 95.7397 55.6644 2585.3 2579.13 2163.08 2157.72 110.806 10.3967 2046.91 1562.25 484.662 1465.21 92.0427 54.0833 79.8569 100.409 60.5821 23.7148 37.9594 25.9829 13.0427 12.9402 404.805 16.3527 39.827 20.5298 36.8673 1373.17
internal_count=19387 9337 301 200 10050 10019 9036 9012 497 59 8515 6733 1782 6297 423 216 248 438 283 112 207 120 55 65 1534 60 155 95 171 5874
is_linear=0
shrinkage=0.05


Tree=9
num_leaves=31
num_cat=0
split_feature=1 1 2 2 0 0 3 3 4 3 3 3 2 3 3 1 1 1 1 4 1 2 1 1 1 0 0 1 3 0
split_gain=4.34815 4.00039 9.86867 11.118 5.37873 4.60137 14.9786 4.27993 6.38462 7.09674 3.93208 9.54163 11.9955 16.7211 14.3292 9.38376 7.28489 7.18305 7.14488 5.56928 8.47649 5.11994 4.89933 3.38208 3.13135 6.15374 2.97915 6.46078 4.63285 11.0763
threshold=19.500000000000004 5.5000000000000009 1.5000000000000002 2.5000000000000004 2.5000000000000004 1.5000000000000002 1.0000000180025095e-35 1.5000000000000002 1.0000000180025095e-35 4.5000000000000009 3.5000000000000004 8.5000000000000018 1.0000000180025095e-35 5.5000000000000009 5.5000000000000009 7.5000000000000009 6.5000000000000009 9.5000000000000018 8.5000000000000018 1.0000000180025095e-35 10.500000000000002 1.5000000000000002 12.500000000000002 4.5000000000000009 10.500000000000002 3.5000000000000004 2.5000000000000004 7.5000000000000009 4.5000000000000009 4.5000000000000009
decision_type=2 2 2 2 2 2 2 2 2 2 2 2 2 2 2 2 2 2 2 2 2 2 2 2 2 2 2 2 2 2
left_child=1 2 7 5 -5 6 -4 -1 9 -9 -3 12 13 16 17 -16 -12 -14 -15 20 26 24 -22 -11 -19 -26 27 -18 29 -28
right_child=-2 10 3 4 -6 -7 -8 8 -10 23 11 -13 14 18 15 -17 19 21 -20 -21 22 -23 -24 -25 25 -27 28 -29 -30 -31
leaf_value=0.018892493780979108 0.034275786152764005 0.00052883684094356031 0.050577934428884065 -0.0046770787584804281 0.064587313378758782 -0.050619088003731272 -0.058617979887309879 -0.0044322652095893913 -0.035725732510518846 0.034709758674178422 0.020752879359826601 0.065519303542734178 0.0032540970907155159 -0.070023494531384442 0.0029318178087589775 0.063225800472812926 -0.10010591570293198 -0.063781328299658241 -0.01873714526283991 0.019586830339866079 0.028711332131323458 0.0066276154739335034 -0.035457095324600993 0.00068770521663993076 0.017953201737573053 -0.055357714574222366 -0.019534853481438831 -0.023578365914880328 -0.00063952161316137854 -0.099351595313211416
leaf_weight=98.363044508732855 9.5402381247840804 4278.5552336012479 5.6477966755628604 6.3161053694784624 5.0389436185359955 15.667046453803776 7.0740666855126619 47.418447992764413 9.1545516513288003 25.690758179873228 17.963120022322983 4.6197837665677062 78.370546380057931 18.397938044276092 11.506692146882417 14.693308698013423 4.2363478131592256 8.1626799022778922 10.764199449680744 10.55867596901953 12.053884906228634 8.3585612457245571 3.9492159788496783 10.206826070556415 5.0760024394839984 6.5641630738973618 23.520408891607079 7.9030505996197462 15.853177109500391 5.3318985016085199
leaf_count=314 40 17279 13 43 19 115 33 230 35 71 62 12 256 117 41 34 28 37 55 37 64 33 23 47 14 35 134 30 88 48
internal_value=0.000554097 0.000486751 0.0069117 -0.0157547 0.0260599 -0.0324798 -0.0101411 0.0116323 0.00390951 0.00826453 0.000160903 -0.00571562 -0.00696566 -0.0177281 0.00361843 0.0367455 -0.00812975 -0.00452869 -0.0510929 -0.0143501 -0.019269 -0.0261875 0.012876 0.0250362 -0.0400383 -0.0233885 -0.0283185 -0.0502846 -0.0223538 -0.034285
internal_weight=4786.56 4777.02 230.578 39.744 11.355 28.3889 12.7219 190.834 92.4706 83.316 4546.44 267.884 263.264 130.532 132.732 26.2 101.37 106.532 29.1621 83.4067 72.848 28.1614 16.0031 35.8976 19.8028 11.6402 56.8449 12.1394 44.7055 28.8523
internal_count=19387 19347 920 223 62 161 46 697 383 348 18427 1148 1136 686 450 75 514 375 172 452 415 119 87 118 86 49 328 58 270 182
is_linear=0
shrinkage=0.05


Tree=10
num_leaves=31
num_cat=0
split_feature=2 3 3 0 0 0 1 2 1 3 2 1 3 4 3 1 1 1 1 1 2 1 1 1 2 1 0 1 1 3
split_gain=12.6874 10.6718 13.3572 10.0602 7.98559 5.18544 16.6543 8.1619 10.7656 12.1478 7.60479 9.53041 8.89347 7.05681 17.243 14.5144 9.85895 8.62964 7.32238 6.06048 5.39759 5.23374 7.21816 4.74853 9.18073 13.4641 8.03275 7.90729 17.7236 8.4209
threshold=3.5000000000000004 6.5000000000000009 3.5000000000000004 4.5000000000000009 2.5000000000000004 3.5000000000000004 8.5000000000000018 1.5000000000000002 7.5000000000000009 1.0000000180025095e-35 1.0000000180025095e-35 16.500000000000004 2.5000000000000004 1.0000000180025095e-35 1.0000000180025095e-35 10.500000000000002 5.5000000000000009 6.5000000000000009 11.500000000000002 3.5000000000000004 1.0000000180025095e-35 9.5000000000000018 12.500000000000002 11.500000000000002 1.5000000000000002 10.500000000000002 7.5000000000000009 13.500000000000002 14.500000000000002 2.5000000000000004
decision_type=2 2 2 2 2 2 2 2 2 2 2 2 2 2 2 2 2 2 2 2 2 2 2 2 2 2 2 2 2 2
left_child=1 2 5 -2 -3 13 7 -7 9 -9 11 12 -8 18 17 16 -16 -15 19 -1 -18 -14 -23 24 25 26 -12 -25 -29 -30
right_child=3 4 -4 -5 -6 6 10 8 -10 -11 23 -13 21 14 15 -17 20 -19 -20 -21 -22 22 -24 27 -26 -27 -28 28 29 -31
leaf_value=0.027439457068086117 -0.014485811564718065 -0.020457107325849846 0.010606147775420087 -0.098548532333940259 -0.10054605044208749 0.0047987549068590893 -0.00045577817014680311 0.024222374778782363 0.031551861374164283 -0.024749810115690399 -0.0059970121473068468 0.024285180264575015 0.0372703526909135 0.032307041383002465 -0.0047905936047329409 0.0201280106678038 -0.050507626901327832 -0.023001761947159086 0.019956261155925439 -0.0042901641943695621 -0.099511568938798992 -0.0023650081862200295 0.031987414600952592 0.0032520891521403959 0.0014580852761132503 -0.02123163839884442 0.032246106564376424 -0.021872071979201779 3.6754232727609652e-05 0.051124765789708572
leaf_weight=15.354572596959768 9.5974990022368711 25.26269077509642 289.38295706128702 5.6568767037242642 3.5497933682054272 575.78578297467902 1107.8261862089857 27.23788842279464 71.371836869046092 23.665217175614089 361.68736191140488 44.715147624723613 21.680627226829529 16.794141121208671 6.6133707119151977 7.3609961234033099 11.605969981756063 12.158248038962482 34.280972555279732 757.01300362125039 10.893579577561466 45.830210669897497 22.948491201736033 477.73734759259969 261.31875243317336 178.18494954518974 14.27270253933966 122.69470106624067 198.51890639751218 8.407651109620927
leaf_count=56 65 138 1199 59 28 2276 4416 124 270 109 1510 161 70 29 31 17 74 69 118 3151 97 184 61 1791 1110 776 49 519 776 16
internal_value=-0.000132952 1.3126e-05 0.000198107 -0.0456593 -0.0303243 -0.000480869 0.000364768 0.00729023 0.0190225 0.00145486 -0.00132215 0.00162084 0.000775104 -0.00393671 -0.0197297 -0.0425989 -0.0584589 0.0090807 -0.00265576 -0.00365938 -0.0742338 0.0158493 0.00909692 -0.00357633 -0.00626752 -0.0099107 -0.00454518 -0.000858116 -0.00681525 0.00211252
internal_weight=4769.41 4754.15 4725.34 15.2544 28.8125 4435.96 3563.88 698.061 122.275 50.9031 2865.82 1243 1198.29 872.075 65.4263 36.4739 29.1129 28.9524 806.649 772.368 22.4995 90.4593 68.7787 1622.82 815.464 554.145 375.96 807.359 329.621 206.927
internal_count=19349 19225 19059 124 166 17860 14218 2779 503 233 11439 4892 4731 3642 317 219 202 98 3325 3207 171 315 245 6547 3445 2335 1559 3102 1311 792
is_linear=0
shrinkage=0.05


Tree=11
num_leaves=31
num_cat=0
split_feature=2 3 3 0 2 3 5 0 0 4 5 5 5 3 5 3 5 2 5 2 5 2 5 3 0 0 0 5 3 0
split_gain=4.38755 4.26936 4.29026 8.34088 8.51607 10.7122 8.00563 3.09518 9.09649 10.5341 11.3592 18.4389 11.0641 10.6261 10.1478 9.79042 8.82842 7.70765 7.12372 7.10145 3.81579 4.90752 7.00268 6.2932 5.67628 5.28615 6.34467 6.53903 6.20834 5.61898
threshold=2.5000000000000004 8.5000000000000018 5.5000000000000009 3.5000000000000004 1.0000000180025095e-35 6.5000000000000009 10.500000000000002 5.5000000000000009 6.5000000000000009 1.0000000180025095e-35 15.500000000000002 13.500000000000002 13.500000000000002 3.5000000000000004 10.500000000000002 2.5000000000000004 11.500000000000002 1.0000000180025095e-35 22.500000000000004 1.0000000180025095e-35 18.500000000000004 1.5000000000000002 22.500000000000004 1.5000000000000002 9.5000000000000018 9.5000000000000018 8.5000000000000018 23.500000000000004 1.0000000180025095e-35 7.5000000000000009
decision_type=2 2 2 2 2 2 2 2 2 2 2 2 2 2 2 2 2 2 2 2 2 2 2 2 2 2 2 2 2 2
left_child=1 2 7 4 6 -6 -4 -1 9 12 11 -11 14 15 -9 18 -10 -17 -14 -20 -18 25 23 -23 -24 26 27 -22 -28 -29
right_child=-2 -3 3 -5 5 -7 -8 8 16 10 -12 -13 13 -15 -16 17 20 -19 19 -21 21 22 24 -25 -26 -27 28 29 -30 -31
leaf_value=0.0013695547465676005 -0.0078659226288531874 -0.039764637927663216 0.0076592722511480199 0.048153184147727381 0.042031056462016811 -0.030214134993644032 -0.050999656639299812 0.016956771408659546 -0.052695396217899586 0.031912984603304509 0.033114217106692545 -0.047472182943902409 -0.0043362373047473928 -0.073930755704769049 -0.025016735377535893 -0.0021849774353768481 0.0049337203480093713 0.050544261443408359 0.0070119905538039221 -0.098692037932390161 -0.0016393207070281867 -0.015936998794404186 -0.10020521214939743 0.038350772101623812 -0.011432869830163988 0.013151330932464983 -0.0049993437929280009 -0.011066686582114771 -0.037155014361723269 0.035526864815407615
leaf_weight=2768.7653281536186 163.9138568174094 6.5869472126942119 13.380578315583991 13.580118119716643 19.827039229683582 6.9224138136487445 10.289417216554282 16.336364340037107 7.3771196380257598 14.143854858353736 34.793731689453125 15.149496372323481 488.73480784194544 5.3974696919322005 121.48359018331394 13.216352032031866 555.71675305953249 14.571386941708623 2.6433221548795691 3.9833677876740694 203.93072912609205 38.110017327591777 4.093738646246492 6.2079458422958842 3.214864362962544 68.815639153588563 45.093161017633975 8.9584777988493425 22.500787496566772 23.299891963601112
leaf_count=11145 874 43 51 47 41 35 115 39 33 41 109 76 1976 40 485 55 2291 35 17 37 862 188 32 14 15 257 207 32 103 54
internal_value=0.000171188 0.000460273 0.000518499 0.0133728 0.00400491 0.0233349 -0.0178399 0.000335135 -0.00133218 -0.00556234 0.0137994 -0.00914225 -0.00742442 -0.0041345 -0.0200414 -0.0034144 0.00179744 0.0254653 -0.00503443 -0.0565277 0.00220767 -0.00136334 -0.0158106 -0.00833251 -0.0611566 0.000638455 -0.00219607 0.00166952 -0.0157034 0.0225874
internal_weight=4721.04 4557.12 4550.54 63.9996 50.4194 26.7495 23.67 4486.54 1717.77 730.454 64.0871 29.2934 666.367 528.547 137.82 523.149 987.319 27.7877 495.361 6.62669 979.942 424.225 51.6266 44.318 7.3086 372.599 303.783 236.189 67.5939 32.2584
internal_count=19349 18475 18432 289 242 76 166 18143 6998 2910 226 117 2684 2160 524 2120 4088 90 2030 54 4055 1764 249 202 47 1515 1258 948 310 86
is_linear=0
shrinkage=0.05


Tree=12
num_leaves=31
num_cat=0
split_feature=5 2 1 5 5 1 1 2 5 5 0 1 2 0 1 0 5 1 0 1 5 0 0 1 0 0 5 5 1 4
split_gain=3.26505 19.9793 8.27288 3.39949 3.11971 6.08477 6.55638 4.77421 4.2177 4.11163 9.01176 3.67083 5.73448 2.98901 2.69637 2.50822 7.44797 1.98525 2.42761 1.58179 5.38686 19.4425 12.8241 9.74761 7.35817 7.03169 6.81993 6.38868 6.13675 5.5681
threshold=25.500000000000004 1.0000000180025095e-35 19.500000000000004 26.500000000000004 23.500000000000004 17.500000000000004 16.500000000000004 1.0000000180025095e-35 24.500000000000004 22.500000000000004 6.5000000000000009 17.500000000000004 1.0000000180025095e-35 4.5000000000000009 17.500000000000004 1.0000000180025095e-35 11.500000000000002 13.500000000000002 8.5000000000000018 8.5000000000000018 12.500000000000002 6.5000000000000009 3.5000000000000004 5.5000000000000009 6.5000000000000009 4.5000000000000009 13.500000000000002 13.500000000000002 5.5000000000000009 1.0000000180025095e-35
decision_type=2 2 2 2 2 2 2 2 2 2 2 2 2 2 2 2 2 2 2 2 2 2 2 2 2 2 2 2 2 2
left_child=2 -2 4 -3 9 6 7 8 -6 11 13 15 -13 -11 -12 16 -1 -9 -19 20 24 22 23 27 -17 28 -25 -22 -24 -27
right_child=1 3 -4 -5 5 -7 -8 17 -10 10 14 12 -14 -15 -16 19 -18 18 -20 -21 21 -23 25 26 -26 29 -28 -29 -30 -31
leaf_value=-0.096482303256216762 -0.10113306356304581 -0.012985771300157239 0.051790978517547895 0.03779672898848567 -0.054740875872948458 -0.030082044218888854 0.042970733382950967 0.041377553938339494 0.0078234129513494646 -0.028393215744232359 -0.0001024353837819813 0.054621379808528658 -0.0091087565861376774 -0.097336942524430634 -0.032647017568209695 0.00052514465054686699 0.020672212551805246 -0.011080733605405796 0.034074684883014718 0.0007008766055034369 -0.098056310746968578 -0.10039725308522672 0.058279478920799925 -0.0011665245636142115 0.048580511737958486 -0.0045154703447234257 -0.020578549170008033 -0.02509105624388502 0.0063067871538795839 -0.05334969101224242
leaf_weight=2.5398332662880412 5.4721775362268117 6.5618682936765236 7.739453211426734 6.6205211579799652 5.1839802572503704 7.4409007309004656 17.379945118911564 6.6751446360722211 5.6077864151448011 2.6516991630196562 34.569663677364588 7.7067552781663817 6.5125465178862214 3.8613202609121799 7.8006151542067519 991.6886379616335 2.9120804201811552 7.2315532620996219 5.0584753705188632 2986.1882109855069 5.469217627309261 5.3185104057192794 5.8607049984857431 83.254468773026019 8.0302453525364381 149.94094658875838 99.106767136137933 6.6447947937995195 183.93946489691734 6.0735569912940255
leaf_count=50 34 26 18 24 25 42 44 17 20 12 145 15 36 50 29 3836 10 36 20 12469 49 29 12 444 21 558 546 33 659 40
internal_value=5.60172e-05 -0.0208204 0.000139545 0.0125185 5.36625e-05 0.0119375 0.0185706 0.00431942 -0.0222302 -8.73344e-05 -0.014511 6.75875e-05 0.0254325 -0.0692673 -0.00609408 -1.19087e-05 -0.0339055 0.019427 0.00750487 2.8869e-05 -0.00126972 -0.00526572 -0.00432927 -0.0146014 0.00091115 0.00144745 -0.0117163 -0.0580333 0.00791162 -0.00641656
internal_weight=4681.04 18.6546 4662.39 13.1824 4654.65 54.5778 47.1369 29.7569 10.7918 4600.07 48.8833 4551.19 14.2193 6.51302 42.3703 4536.97 5.45191 18.9652 12.29 4531.52 1545.33 545.608 540.29 194.475 999.719 345.815 182.361 12.114 189.8 156.015
internal_count=19349 84 19265 50 19247 204 162 118 45 19043 236 18807 51 62 174 18756 60 73 56 18696 6227 2370 2341 1072 3857 1269 990 82 671 598
is_linear=0
shrinkage=0.05


Tree=13
num_leaves=31
num_cat=0
split_feature=1 3 5 5 1 3 1 0 2 0 1 5 1 3 5 3 5 5 1 5 1 2 0 0 2 1 2 5 5 5
split_gain=3.59757 2.36517 7.42813 13.83 11.1761 12.2709 12.7082 11.1113 17.4774 10.3398 4.85297 7.26867 4.81195 5.87122 7.3711 4.50824 7.29162 5.66188 6.47503 6.22415 7.68476 8.28552 16.5402 11.4178 6.07854 5.44153 4.78681 6.74109 11.4219 10.206
threshold=19.500000000000004 1.0000000180025095e-35 19.500000000000004 18.500000000000004 11.500000000000002 2.5000000000000004 15.500000000000002 5.5000000000000009 1.0000000180025095e-35 9.5000000000000018 12.500000000000002 21.500000000000004 13.500000000000002 1.5000000000000002 17.500000000000004 1.5000000000000002 9.5000000000000018 16.500000000000004 5.5000000000000009 17.500000000000004 8.5000000000000018 1.5000000000000002 6.5000000000000009 5.5000000000000009 1.0000000180025095e-35 9.5000000000000018 1.5000000000000002 17.500000000000004 7.5000000000000009 12.500000000000002
decision_type=2 2 2 2 2 2 2 2 2 2 2 2 2 2 2 2 2 2 2 2 2 2 2 2 2 2 2 2 2 2
left_child=1 -1 3 9 7 6 -6 8 -5 12 11 -4 15 14 -14 16 -3 18 24 20 -19 22 23 -22 -18 -21 -17 28 -28 -30
right_child=-2 2 10 4 5 -7 -8 -9 -10 -11 -12 -13 13 -15 -16 26 17 19 -20 25 21 -23 -24 -25 -26 -27 27 -29 29 -31
leaf_value=-0.0012477412059891915 0.02911208852814386 -0.015151880662750285 0.0025445599257826537 0.033367819339884218 -0.049925680849283324 0.019321958266385317 0.024443417135906486 0.039937922778188174 -0.059894638217440878 -0.067776843243904691 0.013163899114285837 -0.056568036480981833 -0.068628636813466398 0.0042819266090963959 -0.0083745600194750063 0.00058648620487228309 0.053270595240488217 0.064849496202187315 0.0021846820901354259 -0.049208498071898026 -0.0010072808630246471 0.043263619820261306 0.03269383792679894 -0.07167295431493223 0.0085662460425688317 0.0056911591029447884 0.070449292676279904 -0.046002181478827696 -0.026571492184981435 0.0014503243569873501
leaf_weight=2147.158121212502 10.614774169865994 47.963591762818396 46.97605785029009 9.0216809441335517 45.951658259145916 10.191925062797962 6.5649934615939847 13.499423049390314 11.335011742543427 5.4587199799716464 186.9396986013744 5.8477390906773499 8.9779115421697497 18.385117451660335 11.677992297336459 964.03517866740003 11.96538161113858 9.2991141015663725 767.28919538413174 4.8806541915982953 22.566004684194926 22.080601926427335 31.944501966238022 7.6553520197048774 20.861111455131322 60.014253868721426 4.7360996352508655 11.306498134508727 50.336641961010173 91.669616420171224
leaf_count=9304 36 208 147 30 251 56 24 35 62 23 626 36 65 67 64 3952 27 22 2931 38 119 66 83 69 79 274 14 35 245 361
internal_value=3.67483e-05 -2.95294e-05 0.00101282 0.000128652 -0.0183867 -0.0308852 -0.040629 0.00476328 -0.0185626 0.000951404 0.00938255 -0.00399937 0.00112448 -0.0162705 -0.0345635 0.00144352 0.00387308 0.00482504 0.00311503 0.0134605 0.0217146 0.0169534 0.0076083 -0.0189076 0.0248612 0.00156223 -0.000735813 -0.00880131 -0.00593499 -0.00848251
internal_weight=4667.2 4656.59 2509.43 2269.67 96.5647 62.7086 52.5167 33.8561 20.3567 2173.1 239.763 52.8238 2167.64 39.041 20.6559 2128.6 1006.52 958.556 800.116 158.44 93.5456 84.2465 62.1659 30.2214 32.8265 64.8949 1122.08 158.049 146.742 142.006
internal_count=19349 19313 10009 9200 458 331 275 127 92 8742 809 183 8719 196 129 8523 3916 3708 3037 671 359 337 271 188 106 312 4607 655 620 606
is_linear=0
shrinkage=0.05


Tree=14
num_leaves=31
num_cat=0
split_feature=2 5 3 5 1 2 5 3 3 1 1 0 1 0 1 5 2 1 0 0 5 1 0 5 0 1 1 5 0 3
split_gain=2.27809 12.4208 2.19621 3.27362 3.57784 2.98352 3.41309 2.9838 2.84 5.46171 3.71373 2.40333 4.70126 2.62079 2.88671 2.51847 9.00981 5.36373 9.69153 5.64554 5.65566 5.26438 3.84119 4.7971 5.88214 6.4765 5.90163 3.69269 3.81884 3.19038
threshold=3.5000000000000004 13.500000000000002 3.5000000000000004 18.500000000000004 12.500000000000002 1.5000000000000002 16.500000000000004 4.5000000000000009 5.5000000000000009 11.500000000000002 10.500000000000002 1.5000000000000002 8.5000000000000018 4.5000000000000009 9.5000000000000018 10.500000000000002 1.0000000180025095e-35 7.5000000000000009 2.5000000000000004 3.5000000000000004 13.500000000000002 8.5000000000000018 3.5000000000000004 14.500000000000002 2.5000000000000004 7.5000000000000009 9.5000000000000018 9.5000000000000018 3.5000000000000004 4.5000000000000009
decision_type=2 2 2 2 2 2 2 2 2 2 2 2 2 2 2 2 2 2 2 2 2 2 2 2 2 2 2 2 2 2
left_child=2 -2 -1 4 5 6 11 -7 9 10 -8 12 -4 15 -15 27 17 -17 -19 20 21 -20 23 24 25 -18 -26 -13 -29 -21
right_child=1 -3 3 -5 -6 7 8 -9 -10 -11 -12 13 -14 14 -16 16 22 18 19 29 -22 -23 -24 -25 26 -27 -28 28 -30 -31
leaf_value=1.3113406255049039e-05 0.021001868904396665 -0.094263298697588455 0.0054108439624704092 0.027036178364249326 -0.039743503734776926 0.027649717054250351 -0.0028088859697322074 -0.0034455204544976518 0.054174448413548654 -0.037693668642560817 0.055503458154965768 -0.008524584554751637 0.058912986179769269 -0.0030645705664474514 0.03606813241379208 -0.0046841419361233535 0.030870961403452538 -0.099233611076768022 -0.097197772969780216 -0.064773310004590662 0.023600715018935479 0.0057944209877695144 0.023383471879088 0.028832273356609175 -0.064211165789373179 -0.02798190668644748 0.0030849382779593875 0.0066382121926404679 0.047340847099123638 -0.020593004912625359
leaf_weight=4289.5896425386891 6.0164485289715213 3.8218550179153681 36.712667640764266 15.099192596971987 4.7776617128401986 23.748667998239398 4.9445452070795017 11.4267117138952 5.0668901186436406 4.1834435760974875 6.0975370649248362 26.714160850271583 4.6229697987437239 9.7191410732921231 9.1486472357064468 28.37714900681749 11.039937239140274 4.8876844448968759 2.349401485174897 8.4107663920149225 9.0056638233363611 2.6292683715000749 20.837595931254327 9.2884357012808305 8.088167602196334 8.1075678765773755 5.4551569037139407 22.771011512726549 7.715214889496564 7.9473599605262271
leaf_count=17860 42 82 177 50 27 70 34 43 14 25 14 114 10 57 58 152 25 43 27 59 55 15 57 31 42 26 15 64 18 43
internal_value=0.000259535 -0.0237748 0.000310841 0.00431222 0.00318383 0.00386908 0.00204727 0.0175484 0.0217496 0.010959 0.0293917 0.000407559 0.0113945 -0.00183526 0.0159102 -0.00365863 -0.00759737 -0.0208621 -0.0338931 -0.0233677 -4.1575e-05 -0.0428069 0.00583424 -0.00287682 -0.0118863 0.00595108 -0.0371048 0.00504676 0.0169389 -0.0433089
internal_weight=4618.6 9.8383 4608.76 319.173 304.073 299.296 264.12 35.1754 20.2924 15.2255 11.0421 243.828 41.3356 202.492 18.8678 183.625 126.424 63.6073 35.2301 30.3425 13.9843 4.97867 62.8169 41.9793 32.6908 19.1475 13.5433 57.2004 30.4862 16.3581
internal_count=19349 124 19225 1365 1315 1288 1175 113 87 73 48 1088 187 901 115 786 590 394 242 199 97 42 196 139 108 51 57 196 82 102
is_linear=0
shrinkage=0.05


Tree=15
num_leaves=31
num_cat=0
split_feature=1 5 5 3 1 5 1 1 3 5 2 5 5 5 5 5 1 1 3 3 2 5 5 1 5 1 1 1 2 1
split_gain=8.4091 12.2413 8.10511 7.08129 5.94385 5.08163 4.41953 5.74465 8.24972 5.59835 4.75775 11.2617 7.93068 8.8886 9.54968 8.77714 6.78032 6.09735 10.277 13.3103 7.68045 16.0828 13.9157 7.67583 5.92503 5.57631 7.96175 7.06481 5.43607 20.1004
threshold=15.500000000000002 25.500000000000004 26.500000000000004 5.5000000000000009 11.500000000000002 14.500000000000002 4.5000000000000009 2.5000000000000004 4.5000000000000009 8.5000000000000018 1.5000000000000002 16.500000000000004 20.500000000000004 17.500000000000004 12.500000000000002 22.500000000000004 10.500000000000002 12.500000000000002 1.0000000180025095e-35 2.5000000000000004 1.0000000180025095e-35 18.500000000000004 18.500000000000004 14.500000000000002 18.500000000000004 12.500000000000002 11.500000000000002 10.500000000000002 2.5000000000000004 10.500000000000002
decision_type=2 2 2 2 2 2 2 2 2 2 2 2 2 2 2 2 2 2 2 2 2 2 2 2 2 2 2 2 2 2
left_child=3 -2 -3 6 5 -5 7 -1 -9 -8 12 28 13 14 16 25 -11 -15 20 23 22 -22 -19 -20 -21 26 27 -14 -12 -30
right_child=1 2 -4 4 -6 -7 9 8 -10 10 11 -13 15 17 -16 -17 -18 18 19 24 21 -23 -24 -25 -26 -27 -28 -29 29 -31
leaf_value=0.032253463211520984 0.014119537253072374 -0.099750836257477868 -0.0073636484276773974 0.016238350852265007 0.055138043928042502 -0.025494155060640435 0.014530491071950105 -0.027436261297391004 0.030100819966993715 0.001844149790103791 0.0009205440404451813 0.011244001971766943 0.010810096783571836 -7.0709738154173233e-05 -0.0038188762104428759 0.0076018119002832984 0.030287784142773073 0.034069885401581936 0.034258797329941186 0.0087809864616631254 -0.050976744117632804 0.0063436474762120637 -0.0051551801993766563 0.0011361454369471292 -0.06209567538648772 -0.024454184673360413 0.019725688355440613 -0.068602422169258742 -0.0055637737910760043 -0.096827338752505043
leaf_weight=6.013742869719862 171.49339144909754 3.8399848788976652 6.2182259261608124 52.12054028105922 8.4598123058676702 8.4814965687692148 64.626545236678794 44.481245127506554 7.2445931117981663 855.72981652664021 462.4054802483879 280.50644416478463 5.0629999455995875 261.11019320855848 1805.0480280963238 43.651419433299452 21.477602227590978 37.826996488496661 83.756472535897046 5.5937621388584358 18.431500401347876 36.412570848595351 56.210413434542716 22.107841403689235 6.2357012508437037 94.362539406400174 19.216285729780793 6.2678024992346764 69.087725349701941 6.6105111711658529
leaf_count=13 677 32 35 277 15 51 280 223 19 3264 1896 1177 21 1180 7750 180 67 119 305 16 112 208 206 94 48 414 73 37 418 87
internal_value=0.000430371 0.0109753 -0.0426349 -5.86593e-06 0.0158782 0.0103977 -0.000259828 -0.0140002 -0.0193778 -7.36687e-05 -0.000298541 0.0031214 -0.00112719 -0.000572065 -0.00173908 -0.0116986 0.00254057 0.00535993 0.0106792 0.021721 0.00195053 -0.0129201 0.0106233 0.0273417 -0.0285804 -0.0184434 0.000124383 -0.0331181 -0.0011128 -0.0135336
internal_weight=4570.09 181.552 10.0582 4388.54 69.0618 60.602 4319.48 57.7396 51.7258 4261.74 4197.11 818.61 3378.5 3209.94 2682.26 168.561 877.207 527.685 266.575 117.694 148.881 54.8441 94.0374 105.864 11.8295 124.91 30.5471 11.3308 538.104 75.6982
internal_count=19294 744 67 18550 343 328 18207 255 242 17952 17672 3578 14094 13369 11081 725 3331 2288 1108 463 645 320 325 399 64 545 131 58 2401 505
is_linear=0
shrinkage=0.05


Tree=16
num_leaves=31
num_cat=0
split_feature=5 0 1 4 0 5 1 0 1 1 3 1 3 5 5 5 1 5 3 1 1 1 3 0 5 1 1 4 3 3
split_gain=5.83925 7.03556 10.5727 8.27832 8.94157 24.24 10.1494 8.11256 7.41352 6.70637 9.06544 5.7952 9.31486 8.73772 5.21779 4.28116 4.13591 3.59791 6.37289 6.44938 4.45429 12.1374 3.37244 7.79201 5.46872 9.81268 19.3668 3.4952 7.18282 6.78009
threshold=18.500000000000004 7.5000000000000009 14.500000000000002 1.0000000180025095e-35 8.5000000000000018 15.500000000000002 11.500000000000002 8.5000000000000018 12.500000000000002 14.500000000000002 1.0000000180025095e-35 9.5000000000000018 1.0000000180025095e-35 13.500000000000002 15.500000000000002 14.500000000000002 12.500000000000002 13.500000000000002 2.5000000000000004 2.5000000000000004 5.5000000000000009 6.5000000000000009 2.5000000000000004 2.5000000000000004 14.500000000000002 9.5000000000000018 7.5000000000000009 1.0000000180025095e-35 4.5000000000000009 3.5000000000000004
decision_type=2 2 2 2 2 2 2 2 2 2 2 2 2 2 2 2 2 2 2 2 2 2 2 2 2 2 2 2 2 2
left_child=1 9 3 4 5 11 -7 -4 -5 17 -11 -3 13 -13 -6 -14 -15 18 19 -1 -19 -22 23 24 -23 26 -26 28 -24 -29
right_child=-2 2 7 8 14 6 -8 -9 -10 10 -12 12 15 16 -16 -17 -18 20 -20 -21 21 22 27 -25 25 -27 -28 29 -30 -31
leaf_value=0.054291127865552881 0.0046756477207670058 0.037196116366210168 0.040454793239084928 -0.022748571478143423 -0.018138462443361158 -0.098252580542820531 -0.033322110343433367 -0.018029643696080417 -0.10039372239734723 -0.06757999906037708 0.0054141467383146333 -0.099666228627538322 -0.0019960491489695708 -0.026933262110729397 0.012475698148324523 0.040579652630455855 0.027252418111439337 0.030288173673052352 0.0046560922070029483 -0.0030840934604250761 -0.040034651860553536 0.040677489067551871 -0.011167447626107718 0.0022892074742391537 0.061546220909563756 0.032101651879516212 -0.070265656404986304 0.03125450501253986 0.012953514831501723 -0.025858916373340337
leaf_weight=4.9167110100388518 735.3704938160954 11.191559866070746 17.699127126485113 8.525986244902013 19.135580811649561 6.7921157628297797 52.834705177810974 8.916746194008736 4.8077692901715627 8.4801415298134106 8.534276773221789 3.4430513866245773 12.11473310738802 13.544901607558133 51.046572476625443 11.518036717548966 4.7589147146791211 13.789584620855747 360.81644175085239 1279.6249614814296 17.207189380191267 22.265581788495183 147.83353255782276 1618.7366408358794 4.2000651285052326 17.525142366066575 8.2811403903178853 17.124045363627378 39.007122966460884 7.4601746015250674
leaf_count=7 3194 29 42 41 77 71 270 42 26 48 42 28 38 90 197 35 18 48 1449 5490 127 77 701 6655 18 72 87 53 184 38
internal_value=0.000597147 -0.000191676 -0.0087408 -0.0126859 -0.00996312 -0.0184743 -0.0407184 0.0208616 -0.0507452 0.000349439 -0.0309668 0.0049712 -0.00297614 -0.0265911 0.00412857 0.0187543 -0.0128452 0.000499161 -0.00121527 -0.00286448 0.0019734 0.00176786 0.00214997 0.00290276 0.021903 0.00797179 -0.0259095 -0.00379971 -0.00613166 0.0139232
internal_weight=4537.5 3802.13 226.33 199.714 186.38 116.198 59.6268 26.6159 13.3338 3575.8 17.0144 56.5712 45.3796 21.7469 70.1822 23.6328 18.3038 3558.79 1645.36 1284.54 1913.43 1899.64 1882.43 1671.01 52.2719 30.0063 12.4812 211.425 186.841 24.5842
internal_count=19294 16100 1004 920 853 579 341 84 67 15096 90 238 209 136 274 73 108 15006 6946 5497 8060 8012 7885 6909 254 177 105 976 885 91
is_linear=0
shrinkage=0.05


Tree=17
num_leaves=31
num_cat=0
split_feature=5 1 1 0 1 5 5 5 0 5 0 5 3 1 3 5 2 1 1 0 0 1 1 0 1 0 0 5 2 5
split_gain=4.70397 8.27568 12.1501 6.6525 6.40721 8.43839 8.78361 6.0483 4.39691 4.15106 8.40157 7.5714 3.5307 3.5103 6.06997 4.5226 3.82436 3.19692 3.21467 2.95994 2.91866 2.03976 8.35262 1.84082 4.1018 4.62595 3.50641 3.5886 2.7909 9.86727
threshold=23.500000000000004 18.500000000000004 16.500000000000004 9.5000000000000018 17.500000000000004 22.500000000000004 20.500000000000004 21.500000000000004 7.5000000000000009 25.500000000000004 10.500000000000002 26.500000000000004 5.5000000000000009 15.500000000000002 1.0000000180025095e-35 22.500000000000004 1.0000000180025095e-35 11.500000000000002 3.5000000000000004 8.5000000000000018 9.5000000000000018 15.500000000000002 13.500000000000002 3.5000000000000004 6.5000000000000009 1.5000000000000002 1.5000000000000002 9.5000000000000018 1.0000000180025095e-35 15.500000000000002
decision_type=2 2 2 2 2 2 2 2 2 2 2 2 2 2 2 2 2 2 2 2 2 2 2 2 2 2 2 2 2 2
left_child=1 2 12 4 5 6 -4 -5 -8 19 11 -11 13 -1 15 20 -16 18 -14 21 -15 22 -2 24 26 -26 -20 -28 29 -27
right_child=9 -3 3 7 -6 -7 8 -9 -10 10 -12 -13 17 14 16 -17 -18 -19 23 -21 -22 -23 -24 -25 25 28 27 -29 -30 -31
leaf_value=0.00023658924617066623 0.041723661696096266 0.046605940254713395 -0.0078129581891438881 -0.01890228930403479 0.020421265402792026 0.01735050210244149 -0.038693238439587059 -0.10155230731857608 -0.10053486744203598 0.017176264941560774 0.037657005054569259 -0.09930730050915898 0.046485236717626797 0.0083864690768537635 0.0037052720638198543 -0.045197872232035988 0.032905033778420231 0.039443592618183032 0.027827554043492971 0.0043239389167441149 -0.032547775896678309 0.035030028229287781 -0.038388966862633885 0.024849090527609884 -0.057361906884873637 -0.092914434334159468 -0.042361659941549168 0.01146515563841187 0.019802518823151181 0.037892347979536785
leaf_weight=4220.2654581111856 8.5071510029956681 9.6937692910432798 9.3403309313580447 4.0721901422366482 9.2183902915567142 7.6759975291788569 5.1930483039468509 4.8497386486269534 6.437034429050982 2.2542880866676551 4.1866008592769504 3.6599783967249095 4.9012598861008874 31.768035985063761 17.638308333232999 5.6693797414191058 30.784799307584763 9.0591974295675737 15.823300520190971 24.395654718391597 5.0463533652946344 25.093387196771801 5.2685339022427788 9.1281564496457559 5.3750902768224504 2.8831196425016952 4.6606204919517031 9.2264140434563142 6.7868404383771122 2.8837029589340091
leaf_count=18116 23 26 39 22 33 21 17 27 32 28 16 32 17 147 49 33 65 15 74 90 34 67 34 31 36 71 23 36 23 17
internal_value=0.000665741 0.000458171 0.00035716 -0.0249879 -0.0158359 -0.0275035 -0.0439218 -0.0638288 -0.0729214 0.013223 -0.0165419 -0.0549083 0.000627776 0.000445988 0.0101671 -0.00362656 0.0222689 0.0117086 0.00763429 0.0179753 0.00277538 0.0265434 0.0110845 0.00427991 0.000338637 -0.018548 0.0117358 -0.00659963 -0.00192905 -0.0275044
internal_weight=4511.75 4438.38 4428.69 46.7867 37.8648 28.6464 20.9704 8.92193 11.6301 73.3656 10.1009 5.91427 4381.9 4311.17 90.9069 42.4838 48.4231 70.7277 61.6685 63.2647 36.8144 38.8691 13.7757 56.7672 47.6391 17.9288 29.7103 13.887 12.5537 5.76682
internal_count=19294 19004 18978 191 142 109 88 49 49 290 76 60 18787 18444 328 214 114 343 328 214 181 124 57 311 280 147 133 59 111 88
is_linear=0
shrinkage=0.05


Tree=18
num_leaves=31
num_cat=0
split_feature=1 0 3 0 5 3 3 4 5 3 4 5 5 5 1 3 5 0 5 5 1 0 1 3 0 5 0 1 5 1
split_gain=4.88567 4.29769 6.30876 4.5841 2.93841 2.85675 2.98604 3.5019 3.63944 2.75465 2.99981 3.37273 4.11016 4.06996 2.24077 2.16047 2.10141 11.2929 5.09513 2.09306 3.11279 1.93115 5.03628 1.85456 2.20082 5.33633 1.65951 5.21028 3.39107 1.57332
threshold=15.500000000000002 9.5000000000000018 1.5000000000000002 5.5000000000000009 24.500000000000004 2.5000000000000004 1.5000000000000002 1.0000000180025095e-35 24.500000000000004 5.5000000000000009 1.0000000180025095e-35 15.500000000000002 8.5000000000000018 11.500000000000002 17.500000000000004 1.0000000180025095e-35 12.500000000000002 3.5000000000000004 13.500000000000002 10.500000000000002 5.5000000000000009 7.5000000000000009 16.500000000000004 1.0000000180025095e-35 10.500000000000002 22.500000000000004 10.500000000000002 14.500000000000002 23.500000000000004 14.500000000000002
decision_type=2 2 2 2 2 2 2 2 2 2 2 2 2 2 2 2 2 2 2 2 2 2 2 2 2 2 2 2 2 2
left_child=9 3 4 -2 23 6 7 8 15 26 11 12 -11 19 -10 -5 -15 18 -18 20 -14 -17 -23 24 25 -3 28 -28 -1 -30
right_child=1 2 -4 5 -6 -7 -8 -9 14 10 -12 -13 13 16 -16 21 17 -19 -20 -21 -22 22 -24 -25 -26 -27 27 -29 29 -31
leaf_value=0.00016163359628868461 0.031732113151551021 -0.030598718444498425 0.06916559934872589 0.0017551938742568372 0.033744609629602088 0.038267009317985587 -0.030226469525275263 -0.029910917828080454 -0.0027925150867736267 0.035111095312784439 -0.020554494285145164 0.037952683669226384 0.015216846200602319 0.030386134668982764 -0.049297196293399237 0.027878615084352992 -0.0025376816000094813 0.040870896857271494 -0.09651258998729606 -0.043510644541429139 -0.037320983316189278 -0.018308194876605465 0.033890624700097516 0.033868462120638709 -0.02475932515967802 0.042221617791540704 0.0067088724040896015 -0.063610309153499869 0.0096934550472826918 0.037994669184180312
leaf_weight=4210.5134365011472 14.122813853435217 4.3819596031680756 6.2657811250537625 64.047340419143438 12.636871269438414 5.1548556368798009 7.5376507951878002 7.9251670017838469 5.7933538625948113 11.146858755964784 7.169529201462864 11.597099677659569 7.016074154525997 10.888719437178224 4.684961881255731 19.334320109337568 2.749005944468081 7.6001683548092842 3.0345035004429519 5.4010010175406924 4.7133253579959273 10.205383172258736 8.4445535345002991 4.0534910704009226 7.2488599885255089 5.9074177285656333 7.2464676024392229 4.1387424729764462 13.055509845726194 7.8716178378090254
leaf_count=18068 44 36 9 282 47 13 39 35 23 44 36 38 24 43 38 37 29 13 40 41 35 33 25 17 45 21 29 25 60 25
internal_value=0.000717547 0.00861338 0.023039 0.00464628 0.0145952 0.00177289 0.000302873 0.00221361 0.00447645 0.000373933 0.0101191 0.0135474 0.00816146 0.000905819 -0.0235852 0.0073583 0.0140756 0.000805593 -0.0518446 -0.0177547 -0.00589488 0.016806 0.00532704 0.00338773 -0.00365707 0.0112095 0.000210129 -0.0188535 0.000261422 0.0203388
internal_weight=4501.89 187.745 40.4944 147.25 34.2286 133.128 127.973 120.435 112.51 4314.14 71.3163 64.1468 52.5497 41.4028 10.4783 102.032 24.2724 13.3837 5.78351 17.1304 11.7294 37.9843 18.6499 21.5917 17.5382 10.2894 4242.83 11.3852 4231.44 20.9271
internal_count=19294 744 175 569 166 525 512 473 438 18550 343 307 269 225 61 377 125 82 69 100 59 95 58 119 102 57 18207 54 18153 85
is_linear=0
shrinkage=0.05


Tree=19
num_leaves=31
num_cat=0
split_feature=3 1 5 5 3 4 1 1 1 5 3 5 5 2 4 5 1 1 1 5 1 5 2 5 5 5 1 3 5 1
split_gain=5.7223 5.37825 4.12892 6.43431 4.42401 2.7589 3.41798 5.1764 2.47045 2.26943 2.6661 6.86861 2.90248 1.50435 14.1919 7.585 11.4658 4.42716 6.04219 6.12946 6.96848 3.79321 2.83481 4.39892 3.66626 7.40633 1.72402 1.68273 0.967371 2.78738
threshold=5.5000000000000009 15.500000000000002 25.500000000000004 26.500000000000004 2.5000000000000004 1.0000000180025095e-35 11.500000000000002 9.5000000000000018 3.5000000000000004 11.500000000000002 7.5000000000000009 9.5000000000000018 8.5000000000000018 1.5000000000000002 1.0000000180025095e-35 20.500000000000004 17.500000000000004 19.500000000000004 17.500000000000004 22.500000000000004 18.500000000000004 23.500000000000004 1.0000000180025095e-35 22.500000000000004 20.500000000000004 19.500000000000004 16.500000000000004 1.0000000180025095e-35 23.500000000000004 14.500000000000002
decision_type=2 2 2 2 2 2 2 2 2 2 2 2 2 2 2 2 2 2 2 2 2 2 2 2 2 2 2 2 2 2
left_child=1 28 4 -4 13 6 7 8 -2 10 12 -12 -10 17 15 -15 -17 18 21 -20 -21 22 23 -3 25 -24 -23 -26 -1 -30
right_child=5 2 3 -5 -6 -7 -8 -9 9 -11 11 -13 -14 14 -16 16 -18 -19 19 20 -22 26 24 -25 27 -27 -28 -29 29 -31
leaf_value=1.1550361227854177e-05 0.053303497071688424 0.0044383456070485874 -0.096733142521262347 0.00309775036126718 0.047465536511034655 -0.016153755258180257 0.049646361706164432 -0.041268969268070888 0.040341323861175782 0.025587535660132384 -0.09601664227720258 0.036162698249529675 -0.002473297252661464 0.012734982540533539 0.078511475353698318 -0.10006752068091317 -0.00064431949273183805 0.052034772250811302 0.011083315462944067 -0.013773358493114521 -0.10092737477058107 0.016989627206106937 0.020109459060053625 -0.048950314370185863 0.016606067440010804 -0.052890933216275339 0.042491508730156932 0.040765698489805074 -0.0029273493758116814 0.032659559724161062
leaf_weight=4221.7518437444232 4.5623335242271414 40.308092485647649 2.3181216230150303 5.3139878071378917 7.674956575036048 6.4125527041032901 7.6231522299349299 3.9440335805993518 5.8406583229079905 23.302954786224291 2.0956542138010259 1.8508777930401263 12.283360511646604 10.056471901014453 4.4952238867990664 5.3837357154116017 6.2851388072595 6.1889854446053496 10.15962026268244 6.6444249544292671 3.5025285463780165 13.184012791141868 11.639465399086477 4.2666198001243165 15.569746226072313 4.9530363949015728 13.32600075751543 13.41909283492714 14.977291231043637 8.6979510486125946
leaf_count=18116 14 178 32 35 18 36 13 29 15 121 28 15 72 34 9 49 26 11 30 36 21 36 39 32 63 38 29 28 62 29
internal_value=0.000652247 0.000431436 0.00878405 -0.0272242 0.0103362 0.0150557 0.0183097 0.0138761 0.0182316 0.0147051 0.0032149 -0.0340261 0.0113242 0.00865382 -0.00235659 -0.0190891 -0.0465158 0.0106704 0.0088014 -0.0163698 -0.0438572 0.0131826 0.00829376 -0.000671931 0.0170614 -0.00168193 0.0298089 0.0277897 6.80709e-05 0.0101468
internal_weight=4498.03 4430.12 184.689 7.63211 177.057 67.9156 61.503 53.8799 49.9358 45.3735 22.0706 3.94653 18.124 169.382 26.2206 21.7253 11.6689 143.162 136.973 20.3066 10.147 116.666 90.1561 44.5747 45.5813 16.5925 26.51 28.9888 4245.43 23.6752
internal_count=19294 18951 744 67 677 343 307 294 265 251 130 43 87 659 118 109 75 541 530 87 57 443 378 210 168 77 65 91 18207 91
is_linear=0
shrinkage=0.05


Tree=20
num_leaves=31
num_cat=0
split_feature=3 2 0 5 5 0 0 2 3 5 5 0 5 3 5 2 0 3 0 5 4 0 5 5 5 0 0 5 4 5
split_gain=6.25655 8.11497 5.81244 7.42653 5.25506 7.3778 5.43031 6.96769 11.9166 5.07025 4.75112 3.8293 10.7827 8.70134 4.84845 6.50026 3.70932 14.5541 3.33458 4.93635 9.26841 5.86339 4.32232 4.19813 6.29211 4.62911 3.359 3.3262 3.26729 8.47647
threshold=2.5000000000000004 2.5000000000000004 8.5000000000000018 21.500000000000004 17.500000000000004 2.5000000000000004 4.5000000000000009 1.5000000000000002 1.0000000180025095e-35 14.500000000000002 20.500000000000004 3.5000000000000004 8.5000000000000018 1.0000000180025095e-35 10.500000000000002 1.0000000180025095e-35 4.5000000000000009 1.0000000180025095e-35 1.5000000000000002 11.500000000000002 1.0000000180025095e-35 4.5000000000000009 7.5000000000000009 22.500000000000004 19.500000000000004 6.5000000000000009 2.5000000000000004 13.500000000000002 1.0000000180025095e-35 19.500000000000004
decision_type=2 2 2 2 2 2 2 2 2 2 2 2 2 2 2 2 2 2 2 2 2 2 2 2 2 2 2 2 2 2
left_child=2 18 3 4 9 -6 7 -7 -9 11 -8 -1 13 -13 15 16 -14 -18 -2 21 23 22 -20 24 -21 -26 -24 -22 -4 -30
right_child=1 -3 28 -5 5 6 10 8 -10 -11 -12 12 14 -15 -16 -17 17 -19 19 20 27 -23 26 -25 25 -27 -28 -29 29 -31
leaf_value=0.00097151812657165115 0.015776851493491475 -0.058736340311762614 0.0087803081268523347 0.01026313556626555 0.042085474613047208 -0.010753892951632205 -0.0028636916487424641 -0.098680063647512861 -0.013775573987893634 0.001961579524633399 -0.016931124135012837 -0.0082358671496124674 -0.01681701949022766 -0.10081367564038135 -0.0025932319478993806 -0.0025786100025733546 -0.099228209463792127 -0.007251416200003552 -0.043044307220441086 0.0051422753108715177 0.049480819309259946 -0.036805749636470188 0.011094452641341724 0.039504832041286499 -0.040875704763088827 0.0051758179512241057 -0.0046381396020700747 0.019455115039661616 -0.098595254238655172 0.0039556836446445068
leaf_weight=548.36263489630073 65.239205136662349 5.0221707001328459 199.40845677582547 134.23294953792356 8.0080131874419731 70.38116441317834 525.71742955897935 6.6558686993084857 10.901462554931641 1061.0846829037182 67.757256145123392 4.9810855831019563 29.981764288153499 5.1751073561608791 1011.7013632317539 57.721620419993997 7.3893096204847124 10.290781009942291 5.814658814109861 323.85768385487609 13.342305375263093 12.165880979970096 52.353270838153549 8.2250146130099875 13.411700550466778 9.2003992609679681 96.396526416996494 29.879621849395335 2.5699016866274169 9.3321099577005935
leaf_count=2461 259 41 880 551 36 325 2187 64 52 4588 348 40 134 38 4396 239 41 32 30 1518 43 46 195 20 49 24 324 98 28 62
internal_value=-2.2555e-05 0.0045694 -0.000795551 -0.00127374 -0.00172575 -0.00562722 -0.00618794 -0.0177834 -0.0459623 -0.000742895 -0.00446978 -0.00245552 -0.00412265 -0.0554091 -0.00365637 -0.0138627 -0.0275284 -0.0456927 0.00507415 0.00383756 0.00686375 -0.0033847 -0.000754104 0.00419995 0.00336183 -0.0221383 0.000899029 0.0287238 0.00726137 -0.0181873
internal_weight=4406.56 634.908 3771.65 3560.34 3426.11 689.421 681.413 87.9385 17.5573 2736.69 593.475 1675.6 1127.24 10.1562 1117.08 105.383 47.6619 17.6801 629.886 564.647 397.917 166.73 154.564 354.695 346.47 22.6121 148.75 43.2219 211.31 11.902
internal_count=19149 2647 16502 15532 14981 3012 2976 441 116 11969 2535 7381 4920 78 4842 446 207 73 2606 2347 1752 595 549 1611 1591 73 519 141 970 90
is_linear=0
shrinkage=0.05


Tree=21
num_leaves=31
num_cat=0
split_feature=1 1 5 0 3 5 0 5 1 3 0 3 1 3 1 3 4 1 0 1 3 3 0 0 5 3 5 5 4 3
split_gain=4.73116 4.84313 6.55066 11.1828 9.20931 4.92959 3.94824 3.4409 7.14381 15.1006 4.62677 9.80035 4.67898 3.63855 14.4547 6.93235 18.3238 3.38165 5.63066 6.10446 2.87283 2.71022 2.69211 5.41128 6.32169 3.0314 2.93167 3.1287 4.19998 4.04
threshold=3.5000000000000004 10.500000000000002 15.500000000000002 3.5000000000000004 4.5000000000000009 14.500000000000002 9.5000000000000018 14.500000000000002 11.500000000000002 1.5000000000000002 4.5000000000000009 1.0000000180025095e-35 11.500000000000002 1.0000000180025095e-35 11.500000000000002 1.5000000000000002 1.0000000180025095e-35 11.500000000000002 6.5000000000000009 12.500000000000002 5.5000000000000009 1.5000000000000002 5.5000000000000009 4.5000000000000009 13.500000000000002 2.5000000000000004 12.500000000000002 13.500000000000002 1.0000000180025095e-35 1.0000000180025095e-35
decision_type=2 2 2 2 2 2 2 2 2 2 2 2 2 2 2 2 2 2 2 2 2 2 2 2 2 2 2 2 2 2
left_child=20 -2 3 5 -4 -3 7 8 22 -10 11 -9 -13 17 15 16 -15 -12 -19 -20 -1 -7 23 25 -25 -5 -24 28 -28 -29
right_child=1 2 4 6 -6 21 -8 10 9 -11 13 12 -14 14 -16 -17 -18 18 19 -21 -22 -23 26 24 -26 -27 27 29 -30 -31
leaf_value=0.011959756640013176 -0.0014702694480987122 0.045253262289880858 -0.00011696737502378753 0.0034216558824442843 0.037110860686723306 -0.020890360190073145 0.048983593611232834 -0.06196477108697003 -0.0360578090505045 0.019388527366359078 0.025359442138558782 -0.018574739923840174 0.034911196883328582 -0.07727773608781191 0.021162492714154116 0.0043439474859641126 0.047947596064358215 -0.011706810197098646 -0.0045904102891899884 0.042809445853778161 0.050350883273471585 0.027016672751760226 -0.010105223546198416 -0.04878828332736164 0.001276520444126286 0.045628919268485051 0.019708209443387355 -0.0083027528812227077 0.07091438628678659 0.027107169142139148
leaf_weight=21.633998416829858 2509.6624546759995 26.396869527176023 1423.2840926910285 13.604251176118852 16.80855356156826 5.1263612788170558 4.993156394455581 6.9579057404771474 34.219524805434048 19.152723331004381 58.044108503498137 7.9673895249143252 8.3998315501958132 12.104525158181788 40.907397484406829 11.139860750176011 3.8505390398204318 21.434950809925795 11.919722659979017 15.791432706639169 6.2896030349656931 6.9608902260661125 11.796734156087039 10.213440830819311 16.478375177830458 6.1896296292543402 16.772330170497302 18.004285623319447 5.2603755444288245 14.576708095613865
leaf_count=73 11245 57 6163 68 53 24 19 37 183 42 193 46 26 80 119 58 11 81 57 33 18 27 41 60 74 10 85 100 7 59
internal_value=9.16342e-05 -3.98168e-05 0.00190242 0.00749285 0.00031755 0.0331439 0.00482326 0.0042188 -0.00108737 -0.0161608 0.00866299 -0.0122567 0.00887481 0.0114482 0.0024015 -0.0259235 -0.0470563 0.0171876 0.00753612 0.0224208 0.0206071 0.00669867 0.00603867 -0.00318993 -0.0178804 0.01662 0.0124985 0.0173809 0.0319338 0.00753962
internal_weight=4385.94 4358.02 1848.36 408.263 1440.09 38.4841 369.779 364.786 166.268 53.3722 198.518 23.3251 16.3672 175.193 68.0023 27.0949 15.9551 107.19 49.1461 27.7112 27.9236 12.0873 112.896 46.4857 26.6918 19.7939 66.4104 54.6137 22.0327 32.581
internal_count=19149 19058 7813 1597 6216 108 1489 1470 729 225 741 109 72 632 268 149 91 364 171 90 91 51 504 212 134 78 292 251 92 159
is_linear=0
shrinkage=0.05


Tree=22
num_leaves=31
num_cat=0
split_feature=2 3 5 1 0 5 0 1 5 3 5 5 1 3 3 0 0 5 3 5 5 1 0 1 1 1 0 3 5 1
split_gain=2.64067 7.50557 5.92344 5.25018 14.4215 9.25681 15.8309 8.79485 7.8827 9.42732 7.30222 5.69935 6.08655 32.5879 17.0148 8.61106 13.2949 9.53524 4.60917 7.61645 4.56768 14.9062 11.537 4.51985 9.40447 6.99206 11.25 23.0781 6.57501 7.38201
threshold=1.0000000180025095e-35 7.5000000000000009 25.500000000000004 12.500000000000002 6.5000000000000009 17.500000000000004 5.5000000000000009 10.500000000000002 14.500000000000002 2.5000000000000004 18.500000000000004 17.500000000000004 11.500000000000002 1.5000000000000002 1.5000000000000002 7.5000000000000009 6.5000000000000009 19.500000000000004 2.5000000000000004 18.500000000000004 12.500000000000002 6.5000000000000009 3.5000000000000004 6.5000000000000009 7.5000000000000009 8.5000000000000018 4.5000000000000009 1.5000000000000002 11.500000000000002 5.5000000000000009
decision_type=2 2 2 2 2 2 2 2 2 2 2 2 2 2 2 2 2 2 2 2 2 2 2 2 2 2 2 2 2 2
left_child=3 2 23 7 5 6 -5 10 -6 -10 20 -9 13 -13 15 16 17 -14 -16 -20 -1 22 -22 28 -25 26 -26 -28 29 -2
right_child=1 -3 -4 4 8 -7 -8 11 9 -11 -12 12 14 -15 18 -17 -18 -19 19 -21 21 -23 -24 24 25 -27 27 -29 -30 -31
leaf_value=0.0043988389663077018 -0.0025562660895454259 0.059806615948888003 0.046136429830078457 -0.017913706902082143 0.066217399767450544 -0.010370017923725244 -0.098928759321859308 0.01227959627793835 -0.00066847492202027313 0.040477398646223545 -0.037129342220946986 0.027839543771399869 -0.026422408905676716 -0.10019627806637782 0.040628355554295753 -0.098374448169825573 0.021998709117718781 -0.099933827563666242 -0.049167446321423919 0.031410389409824199 -0.097628496001216244 -0.00080265733227161259 -0.010708327509958114 0.0084947251468456397 -0.016473015832722374 -0.00038368875688496993 0.012847177545151365 -0.056171470746273794 0.0064563086873071747 -0.022110790470239446
leaf_weight=500.05395534378476 99.41680222004652 5.0765068074688307 6.632044142112135 19.330586828291416 4.8159948927350333 91.424879433587193 8.7637023217976111 321.70883731311187 245.90178038971499 14.756577227264641 12.766310681588946 42.405323595739901 18.989754026755694 5.6294942609965792 13.89334104396403 4.2326912470161906 11.281214184593408 5.7460402753204098 4.962844552472232 7.1689627543091774 7.0745902787894002 555.01529562519863 8.2923363372683507 259.3671453744173 180.24202661728486 1637.9911867994815 93.906442406121641 13.905190296471117 63.863052492495626 93.801019744947553
leaf_count=2022 462 17 35 75 11 389 73 1205 1004 30 65 146 105 42 45 37 56 45 22 26 80 2563 46 1072 930 7323 354 77 344 448
internal_value=0.00015701 -0.00092708 -0.00105297 0.00155421 -0.00366113 -0.0180836 -0.0431855 0.00287586 0.00283203 0.0016609 0.000462228 0.00887206 -0.000717977 0.0128342 -0.0105404 -0.0309119 -0.0229838 -0.0434989 0.0209656 -0.00155216 0.000910555 -0.00214762 -0.0507244 -0.0011811 -0.000443394 -0.00164703 -0.0088309 0.00394538 -0.00745225 -0.0120494
internal_weight=4358.42 2454.2 2449.12 1904.21 384.994 119.519 28.0943 1519.22 265.474 260.658 1083.2 436.019 114.31 48.0348 66.2748 40.2497 36.017 24.7358 26.0251 12.1318 1070.44 570.382 15.3669 2442.49 2185.41 1926.04 288.054 107.812 257.081 193.218
internal_count=19149 11062 11045 8087 1582 537 148 6505 1045 1034 4776 1729 524 188 336 243 206 150 93 48 4711 2689 126 11010 9756 8684 1361 431 1254 910
is_linear=0
shrinkage=0.05


Tree=23
num_leaves=31
num_cat=0
split_feature=3 1 1 1 4 3 0 0 3 1 0 1 3 0 0 2 3 1 4 0 2 4 1 3 3 1 3 0 2 4
split_gain=2.67144 6.66442 4.09165 2.38748 8.6515 7.82123 5.4496 6.37181 5.0096 6.79579 5.08224 4.45067 4.34325 4.32591 3.54524 3.15144 4.76668 2.68915 5.57022 4.05694 10.2394 4.91359 4.03639 6.53458 3.99248 10.6183 2.54027 2.31279 2.21081 3.48883
threshold=2.5000000000000004 14.500000000000002 13.500000000000002 11.500000000000002 1.0000000180025095e-35 5.5000000000000009 4.5000000000000009 3.5000000000000004 8.5000000000000018 5.5000000000000009 1.5000000000000002 12.500000000000002 3.5000000000000004 6.5000000000000009 6.5000000000000009 1.0000000180025095e-35 3.5000000000000004 6.5000000000000009 1.0000000180025095e-35 4.5000000000000009 1.0000000180025095e-35 1.0000000180025095e-35 4.5000000000000009 4.5000000000000009 3.5000000000000004 9.5000000000000018 4.5000000000000009 5.5000000000000009 3.5000000000000004 1.0000000180025095e-35
decision_type=2 2 2 2 2 2 2 2 2 2 2 2 2 2 2 2 2 2 2 2 2 2 2 2 2 2 2 2 2 2
left_child=28 2 3 8 5 6 7 -5 10 -10 -2 15 -9 -13 17 16 -8 18 22 -19 21 26 -12 -24 25 -22 27 -21 -1 -30
right_child=1 -3 -4 4 -6 -7 11 12 9 -11 14 13 -14 -15 -16 -17 -18 19 -20 20 24 -23 23 -25 -26 -27 -28 -29 29 -31
leaf_value=-0.00027454608823975206 0.015909747530030771 0.036405644708876229 -0.028155587332437299 0.00017760704391065591 0.048319636277206784 0.055109052281165499 -0.014883211838910469 -0.10019084806427055 -0.099571348972691681 0.013193155231478172 0.023250860481803526 -0.036166141980973177 -0.017256982938220457 0.015509388194266 -0.043514993850967645 0.039169414724753326 0.04105904199562823 0.0054583651348731142 -0.050498807366104959 0.00071831127429547654 -0.099270630734415333 0.043562656092135943 -0.00018748861698166037 -0.038148880796623971 -0.0052343970764573708 -0.016719011461589724 0.02702907463016609 -0.030053451393500186 0.0093751393112529863 0.085516775907052742
leaf_weight=3699.6771160161588 60.839980363147333 14.8493375191465 10.69005743274465 8.6827362496405822 13.06616057269275 6.6820601522922507 10.67371135950089 3.7570563228800884 2.8260104842483988 2.5342266438528895 12.245650463737546 9.3300556233152765 2.7227192278951406 7.1562992557883254 4.5227741198614231 11.456596697913481 5.9196288138627997 295.50059532176238 6.7448798366822293 25.470892217475921 6.2678297115489903 7.2977923694998017 56.133378599537537 14.205130986403672 8.1594898067414743 10.290896486490963 6.718114396557211 8.0316368038766068 8.4254371759016031 1.8314689807593829
leaf_count=16387 225 41 47 31 26 13 41 25 27 13 46 44 24 20 30 31 17 1222 41 123 51 19 243 74 40 48 23 62 108 7
internal_value=0.00030188 0.00330464 0.00250919 0.00304903 0.0111298 0.00380948 -0.00193246 -0.027823 0.00183265 -0.0462583 0.00232607 0.00688205 -0.0653431 -0.0137351 0.00053567 0.0189998 0.00507403 0.000971561 -0.00680989 0.00286179 -0.00776007 0.00581697 -0.00324169 -0.00785394 -0.0338607 -0.0479666 -0.00103176 -0.00665867 -0.000210279 0.022971
internal_weight=4342.71 632.776 617.926 607.236 79.447 66.3809 59.6988 15.1625 527.789 5.36024 522.429 44.5363 6.47978 16.4864 461.589 28.0499 16.5933 457.066 89.329 367.737 72.2367 47.5184 82.5842 70.3385 24.7182 16.5587 40.2206 33.5025 3709.93 10.2569
internal_count=19149 2647 2606 2559 272 246 233 80 2287 40 2247 153 49 64 2022 89 58 1992 404 1588 366 227 363 317 139 99 208 185 16502 115
is_linear=0
shrinkage=0.05


Tree=24
num_leaves=31
num_cat=0
split_feature=1 2 4 5 1 1 0 5 5 5 1 2 4 5 5 2 4 0 5 0 0 1 0 2 5 1 4 5 2 2
split_gain=2.26996 1.72852 3.66183 2.39692 5.39329 1.83412 2.54854 5.71446 15.0552 6.60724 5.78308 5.49545 6.26885 5.44463 5.31956 6.02568 14.9316 10.0662 7.02242 10.4529 6.97548 7.59624 6.72915 4.43311 4.16804 8.77975 5.23971 4.09902 3.78031 9.1685
threshold=3.5000000000000004 3.5000000000000004 1.0000000180025095e-35 13.500000000000002 14.500000000000002 10.500000000000002 5.5000000000000009 17.500000000000004 16.500000000000004 12.500000000000002 9.5000000000000018 1.5000000000000002 1.0000000180025095e-35 16.500000000000004 21.500000000000004 1.5000000000000002 1.0000000180025095e-35 4.5000000000000009 17.500000000000004 4.5000000000000009 4.5000000000000009 9.5000000000000018 3.5000000000000004 1.0000000180025095e-35 11.500000000000002 7.5000000000000009 1.0000000180025095e-35 18.500000000000004 1.5000000000000002 1.0000000180025095e-35
decision_type=2 2 2 2 2 2 2 2 2 2 2 2 2 2 2 2 2 2 2 2 2 2 2 2 2 2 2 2 2 2
left_child=-1 5 3 -3 -5 6 13 8 9 24 -9 12 -10 -2 15 18 17 -17 20 22 -15 -22 -20 -24 25 -8 -26 -12 29 -27
right_child=1 2 -4 4 -6 -7 7 10 11 -11 27 -13 -14 14 -16 16 -18 -19 19 -21 21 -23 23 -25 26 28 -28 -29 -30 -31
leaf_value=0.014293200549044564 0.00054752061828251255 0.022433986432302822 0.073653747791766894 -0.089213683743815317 0.049150937882672718 0.0013015455375312845 0.023397873993508154 0.017481254024996947 -0.0018254759021231336 -0.011295517364232739 -0.069673733867646803 0.049796404400499303 0.056300898126013577 -0.0087235522345730874 0.047485891226313449 -0.025015396715164367 0.066497642050037983 -0.099777730156710778 0.0061461754907253191 0.027666720721768841 -0.018809473504320402 -0.097870673376489511 -0.096982296587591152 -0.026345077142758546 0.0082414727056736668 -0.017188924429950198 0.060086724004662063 -0.015525339555534097 0.0063768313810327526 -0.098631544061039675
leaf_weight=28.617828961694613 1944.9931001586374 6.2023275140672904 2.4558171927928916 1.7198343451600524 1.1926841596141455 1848.690920890891 14.363769089803098 4.6016097576357433 20.010961387306455 230.4816447920166 8.3229623129591328 14.806566819548605 6.0381942316889754 31.007558220997453 3.8334869276732197 12.715909523889428 3.1045155376195899 6.9704253915697327 12.521939252037555 26.362239820882678 6.9974471479654294 5.3695183265954256 3.2243052874691784 7.1393207795917988 49.220771068241447 14.153540404513484 5.4089095368981353 6.0251075970008978 6.832280170172452 4.5719710318371645
leaf_count=91 8674 38 8 66 9 7763 41 18 93 1194 49 28 10 164 9 94 8 49 75 105 43 48 51 40 203 67 8 32 24 47
internal_value=0.00025785 0.000164643 0.019464 0.00486368 -0.032553 0.000112684 -0.00078473 -0.00452029 -0.00313371 -0.00672956 -0.031293 0.0254735 0.0116482 -8.83056e-05 -0.0104591 -0.0123837 -0.0354153 -0.0514868 -0.00671653 0.00620398 -0.0213866 -0.0531365 -0.0185193 -0.0483216 0.00440058 -0.00787982 0.0133747 -0.0469355 -0.0254582 -0.0370737
internal_weight=4337.96 4309.34 11.5707 9.11485 2.91252 4297.77 2449.08 384.838 365.889 325.033 18.9497 40.8557 26.0492 2064.24 119.247 115.413 22.7909 19.6863 92.6223 49.2478 43.3745 12.367 22.8856 10.3636 94.5512 39.9216 54.6297 14.3481 25.5578 18.7255
internal_count=19149 19058 121 113 75 18937 11174 1814 1715 1584 99 131 103 9360 686 677 151 143 526 271 255 91 166 91 390 179 211 81 138 114
is_linear=0
shrinkage=0.05


Tree=25
num_leaves=31
num_cat=0
split_feature=5 0 0 3 1 3 1 1 5 0 5 3 3 0 0 0 0 5 3 0 1 5 3 5 0 0 1 0 1 1
split_gain=6.97006 7.02933 19.9704 7.74595 6.90647 6.80767 6.49135 10.2948 9.5944 8.59692 9.20716 11.1168 6.56349 15.5584 6.47223 6.32371 6.23807 5.83289 5.46715 7.24386 5.0472 4.74212 9.8913 4.74061 4.72041 9.18665 4.63044 5.99433 4.22265 6.00963
threshold=18.500000000000004 3.5000000000000004 4.5000000000000009 2.5000000000000004 9.5000000000000018 1.0000000180025095e-35 13.500000000000002 11.500000000000002 19.500000000000004 6.5000000000000009 21.500000000000004 1.0000000180025095e-35 1.0000000180025095e-35 7.5000000000000009 5.5000000000000009 11.500000000000002 8.5000000000000018 24.500000000000004 2.5000000000000004 6.5000000000000009 13.500000000000002 10.500000000000002 1.0000000180025095e-35 20.500000000000004 6.5000000000000009 7.5000000000000009 12.500000000000002 7.5000000000000009 14.500000000000002 15.500000000000002
decision_type=2 2 2 2 2 2 2 2 2 2 2 2 2 2 2 2 2 2 2 2 2 2 2 2 2 2 2 2 2 2
left_child=14 3 5 -2 -4 23 7 24 26 10 -10 -12 16 -14 20 18 -11 -17 19 -8 -1 22 -16 -3 -6 -26 27 -9 -23 -30
right_child=1 2 4 -5 6 -7 15 8 9 12 11 -13 13 -15 21 17 -18 -19 -20 -21 -22 28 -24 -25 25 -27 -28 -29 29 -31
leaf_value=0.00087846644011342005 -0.011724295779532726 0.034239211949364884 0.048658476421638452 -0.099925752677366558 0.018683659215849736 0.01565292686067964 -0.0082337472637035655 0.0068580451032879035 -0.049240695840284336 -0.041143847547495234 -0.05063239092549901 0.043075475640164444 0.028758552795064181 -0.058765891900882952 -0.022952598071493167 -0.098076771337933119 0.0064033117356762752 0.0045647881187041049 0.033207571971934656 0.0091066772528614736 -0.028987966686483121 -0.0049478870945428898 0.05386361946538936 0.074690892881193044 -0.095486513777648094 0.017684192098359513 -0.0079247140735839716 0.059444149128937453 0.018529274592407895 -0.04021009591977829
leaf_weight=2575.8624909846112 17.681104465387765 18.902630713302646 8.1865592440590245 2.8970833646599194 54.818112264852971 28.063364286441356 74.756985303945839 28.705893457867205 34.145552623085678 18.780270885676149 5.7970976782962662 6.9706310331821442 23.166151169687513 6.5026855331379911 7.1469193100929269 2.7691122675314537 10.903188670054076 2.7674117088317871 19.006040117703378 309.86741339135915 14.223778603598474 1021.2271280040732 10.131450852379203 11.741607855074106 2.7956703631207338 5.0008607478812337 40.838381121400744 6.6804090002551666 36.004400486126542 4.9534866460598996
leaf_count=11242 106 84 21 30 194 128 363 143 176 120 36 19 55 40 32 33 31 12 49 1289 87 4674 21 24 42 20 194 32 143 31
internal_value=0.000252397 0.00467303 0.00549525 -0.0241417 0.00301832 0.033445 0.00244725 -0.00398752 -0.00998985 -0.0196997 -0.0356958 0.000528076 -0.00705596 0.00957533 -0.000641167 0.00630189 -0.023679 -0.0467718 0.00702989 0.00573633 0.000714451 -0.00389387 0.0220898 0.0497386 0.0135063 -0.0228964 0.00354669 0.0167855 -0.00431654 0.0114253
internal_weight=4411.29 741.744 721.166 20.5782 662.458 58.7076 654.272 245.105 182.49 106.266 46.9133 12.7677 59.3523 29.6688 3669.55 409.167 29.6835 5.53652 403.63 384.624 2590.09 1079.46 17.2784 30.6442 62.6146 7.79653 76.2247 35.3863 1062.19 40.9579
internal_count=19471 3241 3105 136 2869 236 2848 1102 846 477 231 55 246 95 16230 1746 151 45 1701 1652 11329 4901 53 108 256 62 369 175 4848 174
is_linear=0
shrinkage=0.05


Tree=26
num_leaves=31
num_cat=0
split_feature=2 1 0 1 0 1 3 1 1 2 0 3 3 1 3 1 0 4 3 3 3 1 1 3 1 0 1 3 4 4
split_gain=3.57652 15.7219 4.73655 6.90432 10.3831 5.46321 12.4258 4.91355 7.46713 4.60455 5.84861 5.73724 5.66388 5.55225 9.08512 5.34042 5.02551 5.61314 15.2594 5.19506 7.29829 11.2579 8.60566 10.041 8.15312 8.04471 10.2296 4.5737 11.7725 8.19757
threshold=1.5000000000000002 4.5000000000000009 5.5000000000000009 15.500000000000002 7.5000000000000009 12.500000000000002 1.0000000180025095e-35 7.5000000000000009 9.5000000000000018 1.0000000180025095e-35 9.5000000000000018 5.5000000000000009 6.5000000000000009 14.500000000000002 2.5000000000000004 17.500000000000004 2.5000000000000004 1.0000000180025095e-35 2.5000000000000004 1.5000000000000002 2.5000000000000004 8.5000000000000018 10.500000000000002 5.5000000000000009 4.5000000000000009 3.5000000000000004 7.5000000000000009 1.0000000180025095e-35 1.0000000180025095e-35 1.0000000180025095e-35
decision_type=2 2 2 2 2 2 2 2 2 2 2 2 2 2 2 2 2 2 2 2 2 2 2 2 2 2 2 2 2 2
left_child=9 -2 5 7 -5 27 -7 -4 -9 10 16 13 -13 -11 15 -15 17 -1 -19 -18 21 25 23 -22 -25 26 -21 28 -3 -29
right_child=1 2 3 4 -6 6 -8 8 -10 11 -12 12 -14 14 -16 -17 19 18 -20 20 22 -23 -24 24 -26 -27 -28 29 -30 -31
leaf_value=0.010373889765869594 -0.073239389780050221 -0.0094083301831128958 0.040525185695296145 -0.00020936665970451088 -0.070027654184888696 0.040309693805806499 -0.020469181320898592 -0.035529041856413077 -0.0034906219383081501 0.0016220162862706753 0.016652457960975173 0.035138515500125367 -0.011235957672718412 0.011883121045035645 0.065623531866970716 -0.024921604259008145 -0.00012472169370995951 -0.099530164312749914 0.017133495366435433 -0.048015858282088937 -0.0037431826432110914 -0.02029741798241233 0.014097853554293403 0.017839696717833305 -0.098422408911073817 0.012244420065761614 0.012904279745592813 0.0061859416703994377 0.029891151574346811 -0.029220430778894437
leaf_weight=141.5111439160537 7.811437892727553 207.30381010717247 5.7882421948015681 10.792757604736837 10.511406328529118 24.297930528409779 12.860062468331305 19.788754225242883 224.62835899484344 1493.0480944982264 47.649513543583453 25.498395703732967 8.8760257465764862 124.82371359178796 7.468270167708396 10.701143315061925 1222.6898092743941 4.3903989633545262 7.7516491054557264 15.125464559067041 160.46029458986595 157.66205795714632 74.331361962947994 2.1429414749145499 5.0889824731275439 60.441404448822141 12.657545452937484 248.21590932458639 20.9851587805897 17.500525813549757
leaf_count=593 78 1096 14 45 89 80 62 125 1047 6761 179 53 43 477 11 60 5208 37 38 101 728 688 302 4 68 210 35 1067 68 104
internal_value=0.000351781 -0.00264765 -0.00196067 -0.00733288 -0.0346575 0.000785392 0.0192746 -0.00500628 -0.00608455 0.00103039 -0.000645172 0.00294818 0.0231639 0.00252344 0.0119355 0.00897699 -0.00108729 0.00757457 -0.0250505 -0.00186534 -0.00622727 -0.0122942 -6.3465e-05 -0.00634062 -0.063972 0.00200788 -0.0202615 -0.000605329 -0.00579578 0.00385402
internal_weight=4392.8 810.484 802.673 271.51 21.3042 531.163 37.158 250.205 244.417 3582.32 1911.9 1670.42 34.3744 1636.04 142.993 135.525 1864.25 153.653 12.142 1710.6 487.91 245.886 242.024 167.692 7.23192 88.2244 27.783 494.005 228.289 265.716
internal_count=19471 3875 3797 1320 134 2477 142 1186 1172 15596 8191 7405 96 7309 548 537 8012 668 75 7344 2136 1034 1102 800 72 346 136 2335 1164 1171
is_linear=0
shrinkage=0.05


Tree=27
num_leaves=31
num_cat=0
split_feature=5 1 5 0 2 0 0 0 2 1 0 4 0 5 0 1 0 1 2 0 5 5 2 1 2 1 1 2 2 1
split_gain=6.45565 4.77966 6.34848 6.01853 5.46033 6.11764 7.79861 4.65574 6.23275 8.10219 17.2086 14.2267 6.82556 5.26566 9.08689 5.09289 8.84498 5.74341 4.56522 4.52096 5.51586 7.03548 8.57284 4.84272 5.1002 4.84039 6.13306 12.2811 7.15912 10.3124
threshold=17.500000000000004 10.500000000000002 13.500000000000002 6.5000000000000009 2.5000000000000004 4.5000000000000009 6.5000000000000009 3.5000000000000004 1.0000000180025095e-35 8.5000000000000018 5.5000000000000009 1.0000000180025095e-35 5.5000000000000009 16.500000000000004 4.5000000000000009 8.5000000000000018 1.5000000000000002 5.5000000000000009 2.5000000000000004 3.5000000000000004 14.500000000000002 16.500000000000004 1.0000000180025095e-35 14.500000000000002 1.5000000000000002 13.500000000000002 12.500000000000002 1.5000000000000002 1.5000000000000002 11.500000000000002
decision_type=2 2 2 2 2 2 2 2 2 2 2 2 2 2 2 2 2 2 2 2 2 2 2 2 2 2 2 2 2 2
left_child=1 2 -1 7 19 -6 -7 15 12 10 18 -11 13 -9 -15 16 -4 -18 -10 20 -3 -22 -23 25 -25 26 28 -28 -21 -30
right_child=-2 4 3 -5 5 6 -8 8 9 11 -12 -13 -14 14 -16 -17 17 -19 -20 23 21 22 -24 24 -26 -27 27 -29 29 -31
leaf_value=-0.0015662918772814966 0.0037796202249419293 0.026456698881907194 0.03492907872679344 -0.012088544489199819 -0.096701880336176077 0.0062664330682206228 -0.09536763715232148 -0.00082257815568588218 0.023684129198715289 0.0018114365467203093 -0.061840665691612152 0.039607936037147115 0.016473814683242504 -0.0035655926494734241 -0.096326908482943868 0.0047535516512742567 0.027098647926773675 -0.020934710322834879 0.06697806894586833 -0.0040017217030792656 -0.016672751512534417 0.054683509343939132 -0.01778449336441737 -6.2970266476737285e-05 0.052916476643448375 -0.024409164848123159 -0.002323397068151808 0.034705332085760425 -0.0066015842736722244 -0.040508632710119362
leaf_weight=1483.6689111085143 1065.1040080442326 27.132615596055984 9.3130751303397101 56.630755649879575 3.1135848509147754 8.2274767637718451 2.4493748073000452 219.76065054768696 106.72280624695122 224.2381114338059 5.842934707645326 28.006039856001735 59.080592968501151 7.7480168994516116 4.0046922881156206 123.30925170518458 6.8303546560928217 70.027388421120122 6.4574433462694278 526.46089264471084 29.414632477797568 9.6242271624505538 7.0856425482779732 11.736540423706176 7.4112374521791926 30.882974157575518 106.75662381760776 28.33569217659533 62.589699318632483 34.943792278878391
leaf_count=6734 4666 53 43 339 39 56 37 864 351 1093 53 88 298 48 52 524 31 500 16 2216 114 19 30 52 20 187 439 77 245 187
internal_value=0.000394075 -0.000696061 0.000462547 0.00370631 -0.00381395 -0.0350332 -0.0170494 0.00473286 0.00678903 0.0110817 0.0218345 0.00600789 0.00130466 -0.0025664 -0.0351737 -0.00176368 -0.0110897 -0.016666 0.0261542 -0.00332603 0.00856829 -0.00195451 0.0239542 -0.00440294 0.020443 -0.00500517 -0.00421573 0.0054434 -0.00630689 -0.0187496
internal_weight=4372.91 3307.81 2411.64 927.972 896.165 13.7904 10.6769 871.341 661.861 371.267 119.023 252.244 290.594 231.513 11.7527 209.48 86.1708 76.8577 113.18 882.375 73.2571 46.1245 16.7099 809.117 19.1478 789.97 759.087 135.092 623.994 97.5335
internal_count=19471 14805 11034 4300 3771 132 93 3961 2863 1601 420 1181 1262 964 100 1098 574 531 367 3639 216 163 49 3423 72 3351 3164 516 2648 432
is_linear=0
shrinkage=0.05


Tree=28
num_leaves=31
num_cat=0
split_feature=5 0 1 4 0 1 5 1 0 1 2 5 0 5 5 5 2 1 0 2 0 1 1 0 1 0 5 1 1 0
split_gain=2.77029 2.36081 5.92418 9.39696 3.58852 2.70011 3.43308 8.27085 5.93997 4.90068 4.43382 6.40062 2.40618 9.44876 2.48196 2.4061 8.08049 4.30513 9.54739 2.67917 2.32185 2.93404 2.29501 2.84128 2.25066 4.75776 6.65075 3.22537 3.10547 2.35126
threshold=16.500000000000004 6.5000000000000009 12.500000000000002 1.0000000180025095e-35 9.5000000000000018 8.5000000000000018 13.500000000000002 9.5000000000000018 7.5000000000000009 10.500000000000002 1.0000000180025095e-35 12.500000000000002 7.5000000000000009 15.500000000000002 15.500000000000002 15.500000000000002 1.5000000000000002 10.500000000000002 7.5000000000000009 1.5000000000000002 11.500000000000002 19.500000000000004 10.500000000000002 8.5000000000000018 9.5000000000000018 4.5000000000000009 20.500000000000004 8.5000000000000018 7.5000000000000009 10.500000000000002
decision_type=2 2 2 2 2 2 2 2 2 2 2 2 2 2 2 2 2 2 2 2 2 2 2 2 2 2 2 2 2 2
left_child=1 -1 3 5 12 -3 7 8 -7 10 -9 -12 14 -14 -4 17 22 18 19 -8 21 24 -17 -24 25 26 28 -27 -2 -26
right_child=20 2 4 -5 -6 6 15 9 -10 -11 11 -13 13 -15 -16 16 -18 -19 -20 -21 -22 -23 23 -25 29 27 -28 -29 -30 -31
leaf_value=6.354876348257036e-05 0.022526113022684285 0.016342334307254559 0.031426873742212758 0.025883639182812043 0.041247258573376855 -0.09750687187198559 -0.016559134441842854 -0.02861319663729648 -0.017794400882118692 -0.034935389226932977 0.051405608298197097 -0.019334031655679401 -0.04400983718128651 0.01543450679227931 0.00034114733018975399 0.011786756544150231 -0.094288186837755125 0.0018180863678195905 -0.098536427648944908 0.031446382206062329 -0.032701614545793192 0.036709623971268972 -0.029020230586140533 0.0047752557799581475 0.0014944670505385911 -0.0054906460732565519 0.066142893425251231 0.030016632703970966 -0.015276015249189473 0.017341921450442867
leaf_weight=2640.0970962338615 6.6887934091500929 8.0626988625153881 12.514273815788329 17.889985535293818 7.4679003022611132 5.8945865156128985 23.83589687477798 7.4350638175383237 3.8723810566589236 15.817375602433456 7.1655064851511252 5.7747246958315372 10.314057564362885 18.998324646614492 13.187979752197862 7.5138205466791979 3.3217272656038395 68.763685659854673 3.4921032330021253 3.310019912198185 4.7260155398398629 6.2050513001158825 21.213960410095751 8.7987211644649523 1324.406770905247 8.0384037261828762 3.2879282049834719 31.295345215592533 28.936256034998223 23.826831808313727
leaf_count=11752 29 43 33 81 18 58 154 41 19 84 22 29 40 76 58 51 54 324 36 18 49 21 144 23 5755 42 5 128 201 83
internal_value=0.00049046 -0.000395413 -0.00480731 -0.00879245 0.00872442 -0.0119857 -0.0132122 -0.025072 -0.0659027 -0.0140534 0.0021574 0.0198372 0.00430964 -0.00548199 0.0154766 -0.00932584 -0.0195419 -0.00512763 -0.0207165 -0.0107056 0.00228681 0.00240222 -0.0129256 -0.0191125 0.00225299 0.010497 -0.00189873 0.0227602 -0.00817846 0.00177453
